{"learner":{"attributes":{"best_iteration":"42","best_score":"0.9828096966993021"},"feature_names":["Time","V1","V2","V3","V4","V5","V6","V7","V8","V9","V10","V11","V12","V13","V14","V15","V16","V17","V18","V19","V20","V21","V22","V23","V24","V25","V26","V27","V28","Amount"],"feature_types":["float","float","float","float","float","float","float","float","float","float","float","float","float","float","float","float","float","float","float","float","float","float","float","float","float","float","float","float","float","float"],"gradient_booster":{"model":{"cats":{"enc":[],"feature_segments":[],"sorted_idx":[]},"gbtree_model_param":{"num_parallel_tree":"1","num_trees":"73"},"iteration_indptr":[0,1,2,3,4,5,6,7,8,9,10,11,12,13,14,15,16,17,18,19,20,21,22,23,24,25,26,27,28,29,30,31,32,33,34,35,36,37,38,39,40,41,42,43,44,45,46,47,48,49,50,51,52,53,54,55,56,57,58,59,60,61,62,63,64,65,66,67,68,69,70,71,72,73],"tree_info":[0,0,0,0,0,0,0,0,0,0,0,0,0,0,0,0,0,0,0,0,0,0,0,0,0,0,0,0,0,0,0,0,0,0,0,0,0,0,0,0,0,0,0,0,0,0,0,0,0,0,0,0,0,0,0,0,0,0,0,0,0,0,0,0,0,0,0,0,0,0,0,0,0],"trees":[{"base_weights":[-4.909934E-3,1.9189132E0,-1.5648456E0,1.9943733E0,9.995975E-1,-1.8215991E0,-4.4680157E-1,1.9961053E0,-1.8688525E-1,-3.3624753E-1,1.8407242E0,-1.2121602E0,-1.9241633E0,5.2566314E-1,-1.148813E0,1.9968046E0,-1.7037039E-1,8.1098723E-1,-1.995319E-1,-1.9506173E-1,1.9344871E0,-1.6815042E0,-7.618463E-2,-1.7197952E0,-1.9999103E-1,1.3203818E0,-4.7674108E-1,-1.681548E0,5.8127964E-1,1.9973521E-1,-1.6363637E-1,1.6001324E-1,-1.985348E-1,-1.8490566E-1,1.9645028E-1,-1.8329068E-1,1.4996582E-1,8.76944E-2,-1.9959961E-1,-1.783368E-1,3.6103327E-2,1.6083328E-1,-1.987013E-1,3.8893756E-2,-1.9963768E-1,-1.8334103E-1,1.7241585E-1,-1.9922405E-1,1.3477379E-1],"categories":[],"categories_nodes":[],"categories_segments":[],"categories_sizes":[],"default_left":[0,0,0,0,0,0,0,0,0,0,0,0,0,0,0,0,0,0,0,0,0,0,0,0,0,0,0,0,0,0,0,0,0,0,0,0,0,0,0,0,0,0,0,0,0,0,0,0,0],"id":0,"left_children":[1,3,5,7,9,11,13,15,-1,17,19,21,23,25,27,29,-1,31,-1,-1,33,35,37,39,-1,41,43,45,47,-1,-1,-1,-1,-1,-1,-1,-1,-1,-1,-1,-1,-1,-1,-1,-1,-1,-1,-1,-1],"loss_changes":[2.3845648E5,2.4661719E3,1.2595094E4,2.2372656E2,3.0354048E3,2.2281406E3,5.5958647E3,8.8421875E1,0E0,1.9894897E3,5.9299414E2,2.7419087E3,4.6935156E2,2.7384844E3,4.3883696E3,6.863281E1,0E0,1.3672793E3,0E0,0E0,1.8738135E2,1.7555527E3,2.7550605E3,1.0941133E3,0E0,1.8291252E3,2.00108E3,1.8856445E3,2.2147075E3,0E0,0E0,0E0,0E0,0E0,0E0,0E0,0E0,0E0,0E0,0E0,0E0,0E0,0E0,0E0,0E0,0E0,0E0,0E0,0E0],"parents":[2147483647,0,0,1,1,2,2,3,3,4,4,5,5,6,6,7,7,9,9,10,10,11,11,12,12,13,13,14,14,15,15,17,17,20,20,21,21,22,22,23,23,25,25,26,26,27,27,28,28],"right_children":[2,4,6,8,10,12,14,16,-1,18,20,22,24,26,28,30,-1,32,-1,-1,34,36,38,40,-1,42,44,46,48,-1,-1,-1,-1,-1,-1,-1,-1,-1,-1,-1,-1,-1,-1,-1,-1,-1,-1,-1,-1],"split_conditions":[-2.191317E0,-1.421692E0,1.2922276E0,1.1721399E0,1.891548E0,-8.072138E-1,-4.5049092E-1,-1.7187281E-1,-1.8688525E-1,-2.4423657E-3,4.0745512E-1,5.106306E-1,-3.1832078E-1,1.6437456E-2,7.300755E-1,1.8625352E0,-1.7037039E-1,-1.3708153E-1,-1.995319E-1,-1.9506173E-1,-8.7504596E-1,1.2038052E0,-3.0106542E-1,-3.2272348E-1,-1.9999103E-1,1.2773179E0,-4.0205427E-2,1.7818545E0,2.4703455E-1,1.9973521E-1,-1.6363637E-1,1.6001324E-1,-1.985348E-1,-1.8490566E-1,1.9645028E-1,-1.8329068E-1,1.4996582E-1,8.76944E-2,-1.9959961E-1,-1.783368E-1,3.6103327E-2,1.6083328E-1,-1.987013E-1,3.8893756E-2,-1.9963768E-1,-1.8334103E-1,1.7241585E-1,-1.9922405E-1,1.3477379E-1],"split_indices":[14,12,4,9,4,14,12,3,0,15,1,4,26,14,20,1,0,26,0,0,22,26,13,26,0,3,18,22,24,0,0,0,0,0,0,0,0,0,0,0,0,0,0,0,0,0,0,0,0],"split_type":[0,0,0,0,0,0,0,0,0,0,0,0,0,0,0,0,0,0,0,0,0,0,0,0,0,0,0,0,0,0,0,0,0,0,0,0,0,0,0,0,0,0,0,0,0,0,0,0,0],"sum_hessian":[7.945594E4,3.5578176E4,4.3877758E4,3.2878266E4,2.6999128E3,3.5682754E4,8.195006E3,3.2864016E4,1.425E1,1.0434099E3,1.6565029E3,5.1419565E3,3.0540797E4,3.4357993E3,4.7592065E3,3.2858266E4,5.75E0,6.171599E2,4.2625E2,3.95E1,1.6170029E3,3.6382732E3,1.5036831E3,8.265047E3,2.227575E4,1.9162529E3,1.5195465E3,3.6387732E3,1.1204331E3,3.2853766E4,4.5E0,4.8165988E2,1.355E2,1.225E1,1.6047529E3,3.4733867E3,1.6488663E2,1.0051831E3,4.985E2,8.0201597E3,2.4488663E2,1.7632529E3,1.53E2,9.685465E2,5.51E2,3.4838867E3,1.5488663E2,2.5675E2,8.636831E2],"tree_param":{"num_deleted":"0","num_feature":"30","num_nodes":"49","size_leaf_vector":"1"}},{"base_weights":[2.813134E-2,1.7525694E0,-1.3038558E0,-1.8285613E-1,1.8000591E0,-1.5769236E0,5.4347634E-1,1.8057772E0,-1.812046E-1,-1.6836715E0,-8.615392E-1,9.881119E-1,-1.3638015E0,1.8095496E0,-1.8379001E-1,-1.7647854E0,-1.3183734E0,-3.2212928E-1,-1.8371315E-1,1.556488E0,-3.3286294E-1,1.2981383E0,-1.8516883E-1,1.2944444E-1,1.819797E-1,-1.7844075E-1,-9.7273014E-2,8.403491E-2,-1.4757232E-1,-1.3700508E-1,2.7908385E-2,1.6185325E-1,-1.8530115E-1,1.2333597E-1,-1.8736735E-1,1.8113022E-1,-1.8258077E-1],"categories":[],"categories_nodes":[],"categories_segments":[],"categories_sizes":[],"default_left":[0,0,0,0,0,0,0,0,0,0,0,0,0,0,0,0,0,0,0,0,0,0,0,0,0,0,0,0,0,0,0,0,0,0,0,0,0],"id":1,"left_children":[1,3,5,-1,7,9,11,13,-1,15,17,19,21,23,-1,25,27,29,-1,31,33,35,-1,-1,-1,-1,-1,-1,-1,-1,-1,-1,-1,-1,-1,-1,-1],"loss_changes":[1.8335773E5,5.9196797E3,2.2720492E4,0E0,7.124219E2,2.9950625E3,4.9207485E3,4.745078E2,0E0,1.00934375E3,2.6816316E3,3.5329243E3,1.4272255E3,1.7840625E2,0E0,4.324375E2,2.1098623E3,2.0690007E3,0E0,6.988872E2,3.4198926E3,2.766673E2,0E0,0E0,0E0,0E0,0E0,0E0,0E0,0E0,0E0,0E0,0E0,0E0,0E0,0E0,0E0],"parents":[2147483647,0,0,1,1,2,2,4,4,5,5,6,6,7,7,9,9,10,10,11,11,12,12,13,13,15,15,16,16,17,17,19,19,20,20,21,21],"right_children":[2,4,6,-1,8,10,12,14,-1,16,18,20,22,24,-1,26,28,30,-1,32,34,36,-1,-1,-1,-1,-1,-1,-1,-1,-1,-1,-1,-1,-1,-1,-1],"split_conditions":[-1.7719404E0,-4.849965E-1,2.441411E0,-1.8285613E-1,1.0124619E0,8.5803276E-1,8.676325E-1,1.64077E3,-1.812046E-1,8.932194E-1,1.6178952E-1,6.509905E-1,-9.7163254E-1,3.8437793E-1,-1.8379001E-1,7.725292E-1,9.1207683E-1,2.400617E-1,-1.8371315E-1,4.8502344E-1,-1.5192066E-1,7.5E-1,-1.8516883E-1,1.2944444E-1,1.819797E-1,-1.7844075E-1,-9.7273014E-2,8.403491E-2,-1.4757232E-1,-1.3700508E-1,2.7908385E-2,1.6185325E-1,-1.8530115E-1,1.2333597E-1,-1.8736735E-1,1.8113022E-1,-1.8258077E-1],"split_indices":[10,4,4,0,12,17,3,29,0,4,8,10,21,4,0,23,4,5,0,8,16,29,0,0,0,0,0,0,0,0,0,0,0,0,0,0,0],"split_type":[0,0,0,0,0,0,0,0,0,0,0,0,0,0,0,0,0,0,0,0,0,0,0,0,0,0,0,0,0,0,0,0,0,0,0,0,0],"sum_hessian":[7.9825336E4,3.4787664E4,4.503767E4,4.547939E2,3.433287E4,3.923779E4,5.799883E3,3.4279105E4,5.3764587E1,3.4141867E4,5.0959185E3,4.70379E3,1.0960927E3,3.4244156E4,3.494999E1,2.7935092E4,6.2067773E3,3.2823958E3,1.8135227E3,3.2886177E3,1.4151725E3,1.6952011E2,9.265725E2,6.704405E2,3.3573715E4,2.7258547E4,6.76544E2,4.2138223E2,5.7853955E3,1.1961732E3,2.0862224E3,3.2303584E3,5.825935E1,7.018979E2,7.132746E2,1.4596323E2,2.3556883E1],"tree_param":{"num_deleted":"0","num_feature":"30","num_nodes":"37","size_leaf_vector":"1"}},{"base_weights":[2.9837305E-2,1.585683E0,-1.298397E0,1.6113149E0,-1.730715E-1,-1.4990426E0,-2.8105608E-1,1.6826202E0,9.6041524E-1,-1.5561668E0,-6.7448564E-2,5.9492475E-1,-1.0560758E0,-1.742327E-1,1.6838214E0,1.2635021E0,-8.1469357E-1,-1.0888076E0,-1.655718E0,1.9248286E0,-1.7094533E-1,1.1585178E0,-4.4277796E-1,-1.5591971E0,5.287462E-1,-1.2676223E-1,1.684085E-1,1.4669453E-1,-1.8035226E-1,-1.7975114E-1,1.7332566E-1,-1.7015724E-1,-4.4199307E-2,-1.6748004E-1,-8.884293E-2,2.1215308E-1,-1.6620019E-1,-1.8227844E-1,1.4599033E-1,1.16226785E-1,-1.8105243E-1,1.3026582E-1,-1.7374592E-1,-1.7197728E-1,1.241858E-1],"categories":[],"categories_nodes":[],"categories_segments":[],"categories_sizes":[],"default_left":[0,0,0,0,0,0,0,0,0,0,0,0,0,0,0,0,0,0,0,0,0,0,0,0,0,0,0,0,0,0,0,0,0,0,0,0,0,0,0,0,0,0,0,0,0],"id":2,"left_children":[1,3,5,7,-1,9,11,13,15,17,19,21,23,-1,25,27,29,31,33,35,-1,37,39,41,43,-1,-1,-1,-1,-1,-1,-1,-1,-1,-1,-1,-1,-1,-1,-1,-1,-1,-1,-1,-1],"loss_changes":[1.6132344E5,3.0589219E3,8.595891E3,1.6542344E3,0E0,2.8764766E3,4.7113467E3,1.3522656E2,1.8974126E3,1.5719609E3,4.422096E3,1.9058385E3,2.9365996E3,0E0,2.7148438E1,1.8814829E3,1.2919348E3,2.3546382E3,4.0677344E2,4.3444067E2,0E0,1.8998782E3,2.5208926E3,1.4281255E3,1.4259169E3,0E0,0E0,0E0,0E0,0E0,0E0,0E0,0E0,0E0,0E0,0E0,0E0,0E0,0E0,0E0,0E0,0E0,0E0,0E0,0E0],"parents":[2147483647,0,0,1,1,2,2,3,3,5,5,6,6,7,7,8,8,9,9,10,10,11,11,12,12,14,14,15,15,16,16,17,17,18,18,19,19,21,21,22,22,23,23,24,24],"right_children":[2,4,6,8,-1,10,12,14,16,18,20,22,24,-1,26,28,30,32,34,36,-1,38,40,42,44,-1,-1,-1,-1,-1,-1,-1,-1,-1,-1,-1,-1,-1,-1,-1,-1,-1,-1,-1,-1],"split_conditions":[-1.7883465E0,5.7734907E-1,1.3935208E0,-1.421692E0,-1.730715E-1,8.290264E-1,-4.5049092E-1,-7.0435846E-1,3.2270825E-1,-6.489337E-1,-1.5024445E0,2.7673715E-1,1.030943E0,-1.742327E-1,-5.108836E-1,4.7700176E-1,1.4744238E0,-2.1637475E-2,7.725292E-1,-3.2729402E-1,-1.7094533E-1,-1.1367439E0,-7.403107E-1,-1.8671836E0,2.441411E0,-1.2676223E-1,1.684085E-1,1.4669453E-1,-1.8035226E-1,-1.7975114E-1,1.7332566E-1,-1.7015724E-1,-4.4199307E-2,-1.6748004E-1,-8.884293E-2,2.1215308E-1,-1.6620019E-1,-1.8227844E-1,1.4599033E-1,1.16226785E-1,-1.8105243E-1,1.3026582E-1,-1.7374592E-1,-1.7197728E-1,1.241858E-1],"split_indices":[14,10,4,12,0,21,12,11,15,14,13,14,11,0,4,26,20,4,23,25,0,11,7,25,4,0,0,0,0,0,0,0,0,0,0,0,0,0,0,0,0,0,0,0,0],"split_type":[0,0,0,0,0,0,0,0,0,0,0,0,0,0,0,0,0,0,0,0,0,0,0,0,0,0,0,0,0,0,0,0,0,0,0,0,0,0,0,0,0,0,0,0,0],"sum_hessian":[7.8062984E4,3.595104E4,4.211194E4,3.567582E4,2.75219E2,3.5174215E4,6.9377266E3,3.2152025E4,3.5237954E3,3.382445E4,1.349768E3,3.2568464E3,3.6808801E3,1.0765323E1,3.214126E4,3.0101265E3,5.1366895E2,5.941772E3,2.7882676E4,6.097608E2,7.400072E2,2.1104893E3,1.1463572E3,2.7939292E3,8.86951E2,2.4410973E0,3.2138818E4,2.8233674E3,1.8675903E2,3.7089755E2,1.4277136E2,3.0503594E3,2.8914124E3,2.7204914E4,6.777614E2,5.784472E2,3.131359E1,1.9330171E2,1.9171874E3,5.2749445E2,6.1886273E2,1.6345665E2,2.6304727E3,2.1322328E2,6.737277E2],"tree_param":{"num_deleted":"0","num_feature":"30","num_nodes":"45","size_leaf_vector":"1"}},{"base_weights":[4.1949224E-2,1.4823354E0,-1.2306067E0,1.5720267E0,6.287808E-1,-1.5146445E0,-6.1363673E-1,-1.5519413E-1,1.5743428E0,-6.997452E-2,1.4372693E0,-1.53355E0,5.468545E-1,3.8838825E-1,-1.0645249E0,1.5753758E0,-1.5307902E-1,5.795757E-1,-1.6938078E-1,-1.7169471E-1,1.5448949E0,-1.5521349E0,-1.0409243E-1,-1.5938084E-1,2.1353977E0,1.4190243E0,-2.4913807E-1,1.04669936E-1,-1.3489282E0,1.5757516E-1,-1.7372406E-1,1.15989104E-1,-1.7268609E-1,1.5799499E-1,-2.0260313E-1,-1.5701541E-1,-2.5665516E-2,-1.6004768E-1,1.9034027E-1,-8.6933516E-2,2.1658242E-1,1.4967631E-1,-1.8856794E-1,1.1465937E-1,-1.3263042E-1,-1.6197671E-1,5.9296664E-2,1.2760946E-1,-1.4813629E-1],"categories":[],"categories_nodes":[],"categories_segments":[],"categories_sizes":[],"default_left":[0,0,0,0,0,0,0,0,0,0,0,0,0,0,0,0,0,0,0,0,0,0,0,0,0,0,0,0,0,0,0,0,0,0,0,0,0,0,0,0,0,0,0,0,0,0,0,0,0],"id":3,"left_children":[1,3,5,7,9,11,13,-1,15,17,19,21,23,25,27,29,-1,31,-1,-1,33,35,37,-1,39,41,43,45,47,-1,-1,-1,-1,-1,-1,-1,-1,-1,-1,-1,-1,-1,-1,-1,-1,-1,-1,-1,-1],"loss_changes":[1.4011573E5,2.7440625E3,7.111367E3,2.3719531E2,1.9271996E3,1.0839297E3,5.781665E3,0E0,1.0640625E2,1.931953E3,5.395193E2,7.314258E2,8.646911E2,2.6100334E3,2.9347354E3,4.3085938E1,0E0,1.7532332E3,0E0,0E0,1.9470044E2,6.341719E2,1.0679869E3,0E0,1.5213867E1,3.9281543E2,3.6920273E3,1.455687E3,2.4696826E3,0E0,0E0,0E0,0E0,0E0,0E0,0E0,0E0,0E0,0E0,0E0,0E0,0E0,0E0,0E0,0E0,0E0,0E0,0E0,0E0],"parents":[2147483647,0,0,1,1,2,2,3,3,4,4,5,5,6,6,8,8,9,9,10,10,11,11,12,12,13,13,14,14,15,15,17,17,20,20,21,21,22,22,24,24,25,25,26,26,27,27,28,28],"right_children":[2,4,6,8,10,12,14,-1,16,18,20,22,24,26,28,30,-1,32,-1,-1,34,36,38,-1,40,42,44,46,48,-1,-1,-1,-1,-1,-1,-1,-1,-1,-1,-1,-1,-1,-1,-1,-1,-1,-1,-1,-1],"split_conditions":[-1.7883465E0,-1.421692E0,7.4314165E-1,-4.9808702E-1,1.891548E0,1.7818545E0,-5.6028676E-1,-1.5519413E-1,5.7734907E-1,-1.18399404E-1,4.0745512E-1,1.2038052E0,1.3507594E0,-7.2432977E-1,1.54E0,1.8587091E0,-1.5307902E-1,2.0267319E-2,-1.6938078E-1,-1.7169471E-1,2.0892276E-1,1.7192266E0,1.3148302E0,-1.5938084E-1,-8.914397E-1,5.873353E-1,3.99E0,-1.6660397E-1,-1.490677E0,1.5757516E-1,-1.7372406E-1,1.15989104E-1,-1.7268609E-1,1.5799499E-1,-2.0260313E-1,-1.5701541E-1,-2.5665516E-2,-1.6004768E-1,1.9034027E-1,-8.6933516E-2,2.1658242E-1,1.4967631E-1,-1.8856794E-1,1.1465937E-1,-1.3263042E-1,-1.6197671E-1,5.9296664E-2,1.2760946E-1,-1.4813629E-1],"split_indices":[14,12,4,4,4,22,12,0,10,26,1,26,21,14,29,7,0,27,0,0,23,17,12,0,1,9,29,20,10,0,0,0,0,0,0,0,0,0,0,0,0,0,0,0,0,0,0,0,0],"split_type":[0,0,0,0,0,0,0,0,0,0,0,0,0,0,0,0,0,0,0,0,0,0,0,0,0,0,0,0,0,0,0,0,0,0,0,0,0,0,0,0,0,0,0,0,0,0,0,0,0],"sum_hessian":[7.6439836E4,3.585545E4,4.058439E4,3.2445266E4,3.410183E3,2.778938E4,1.2795009E4,2.3540817E1,3.2421725E4,1.8297188E3,1.5804642E3,2.7537102E4,2.5228001E2,3.9707673E3,8.824242E3,3.2411436E4,1.0288788E1,1.3073916E3,5.2232715E2,5.1654587E1,1.5288096E3,2.7183592E4,3.5350937E2,1.074632E2,1.448168E2,1.5170509E3,2.4537166E3,1.7266282E3,7.097614E3,3.2408283E4,3.1527257E0,1.0449677E3,2.6242392E2,1.5144996E3,1.4309914E1,2.6810467E4,3.7312546E2,2.0265404E2,1.5085532E2,1.1753407E0,1.4364146E2,1.4827189E3,3.4331932E1,1.0687828E3,1.3849337E3,3.8051364E2,1.3461145E3,3.404682E2,6.7571455E3],"tree_param":{"num_deleted":"0","num_feature":"30","num_nodes":"49","size_leaf_vector":"1"}},{"base_weights":[4.820287E-2,1.3358692E0,-1.0046206E0,1.4545237E0,-7.812249E-1,-1.1993341E0,2.594097E-1,1.4706215E0,-1.5395199E-1,-1.527298E-1,5.7977694E-1,-1.2458282E0,2.1493392E-1,-1.5927835E0,6.7713684E-1,-1.4947574E-1,1.4818403E0,1.3832333E0,-1.6322069E-1,-1.4348494E0,-9.80181E-1,1.3335603E0,-1.5231447E-1,-1.7134975E-1,-1.5448461E-1,1.0127794E0,-9.797855E-1,1.4839242E-1,-1.4718436E-1,-1.7102465E-1,1.642285E-1,-1.4548253E-1,6.438564E-3,3.0476593E-3,-1.21660195E-1,-1.5061261E-1,1.6463979E-1,1.1338221E-1,-1.638536E-1,1.2624094E-1,-1.5619859E-1],"categories":[],"categories_nodes":[],"categories_segments":[],"categories_sizes":[],"default_left":[0,0,0,0,0,0,0,0,0,0,0,0,0,0,0,0,0,0,0,0,0,0,0,0,0,0,0,0,0,0,0,0,0,0,0,0,0,0,0,0,0],"id":4,"left_children":[1,3,5,7,9,11,13,15,-1,-1,17,19,21,23,25,-1,27,29,-1,31,33,35,-1,-1,-1,37,39,-1,-1,-1,-1,-1,-1,-1,-1,-1,-1,-1,-1,-1,-1],"loss_changes":[9.906704E4,8.258539E3,9.895426E3,1.5025078E3,1.7729608E3,2.2910117E3,4.1537725E3,1.0322344E3,0E0,0E0,1.1017618E3,1.6922188E3,2.159546E3,3.0700684E0,2.436981E3,0E0,1.9203906E2,3.6692078E2,0E0,5.9021484E2,3.3512764E3,6.02734E2,0E0,0E0,0E0,1.1709387E3,9.658132E2,0E0,0E0,0E0,0E0,0E0,0E0,0E0,0E0,0E0,0E0,0E0,0E0,0E0,0E0],"parents":[2147483647,0,0,1,1,2,2,3,3,4,4,5,5,6,6,7,7,10,10,11,11,12,12,13,13,14,14,16,16,17,17,19,19,20,20,21,21,25,25,26,26],"right_children":[2,4,6,8,10,12,14,16,-1,-1,18,20,22,24,26,-1,28,30,-1,32,34,36,-1,-1,-1,38,40,-1,-1,-1,-1,-1,-1,-1,-1,-1,-1,-1,-1,-1,-1],"split_conditions":[-1.943423E0,-4.8786056E-1,1.891548E0,1.9603355E0,1.7247512E0,1.096342E0,5.0103413E-3,-4.849965E-1,-1.5395199E-1,-1.527298E-1,4.0296387E-2,2.3172298E-1,-7.128339E-1,-4.5049092E-1,1.0408365E0,-1.4947574E-1,8.571347E-1,-1.2537665E-2,-1.6322069E-1,3.0220037E0,-4.5049092E-1,-2.1643221E-1,-1.5231447E-1,-1.7134975E-1,-1.5448461E-1,7.3659503E-1,-9.7163254E-1,1.4839242E-1,-1.4718436E-1,-1.7102465E-1,1.642285E-1,-1.4548253E-1,6.438564E-3,3.0476593E-3,-1.21660195E-1,-1.5061261E-1,1.6463979E-1,1.1338221E-1,-1.638536E-1,1.2624094E-1,-1.5619859E-1],"split_indices":[12,3,4,1,4,21,28,4,0,0,6,4,13,12,3,0,24,8,0,7,12,4,0,0,0,13,21,0,0,0,0,0,0,0,0,0,0,0,0,0,0],"split_type":[0,0,0,0,0,0,0,0,0,0,0,0,0,0,0,0,0,0,0,0,0,0,0,0,0,0,0,0,0,0,0,0,0,0,0,0,0,0,0,0,0],"sum_hessian":[7.307326E4,3.2870453E4,4.020281E4,3.1126264E4,1.7441876E3,3.483657E4,5.3662393E3,3.0960312E4,1.6595154E2,1.1265269E3,6.176608E2,3.3727887E4,1.108684E3,9.870164E2,4.3792227E3,1.1619094E2,3.0844121E4,4.5336148E2,1.6429932E2,1.9703477E4,1.4024408E4,6.746879E2,4.3399606E2,2.7067316E2,7.1634326E2,3.641877E3,7.3734564E2,3.0822873E4,2.1248585E1,3.4598583E1,4.187629E2,1.9444428E4,2.5904874E2,2.6589106E3,1.1365498E4,6.657344E1,6.081145E2,3.483418E3,1.5845906E2,1.5175026E2,5.8559534E2],"tree_param":{"num_deleted":"0","num_feature":"30","num_nodes":"41","size_leaf_vector":"1"}},{"base_weights":[3.1577133E-2,1.3427005E0,-1.0651112E0,-1.5524738E-1,1.3664085E0,-1.2615044E0,-1.4088455E-1,1.3780516E0,-1.54414E-1,-1.314318E0,7.5314087E-3,6.0098076E-1,-8.5213864E-1,1.4312061E0,9.6832126E-1,-8.691044E-1,-1.382592E0,1.6497345E0,-1.4559183E-1,8.1877846E-1,-1.6209004E0,-1.2024521E0,1.2978958E0,1.431623E-1,-1.7066035E-1,-7.080253E-2,1.1913299E-1,-1.9264136E-3,-1.2972361E-1,-1.2312367E-1,-1.441461E-1,-1.4209431E-1,1.7609668E-1,-1.5988283E-1,1.0479202E-1,-2.051637E-1,-1.5940027E-1,4.814863E-3,-1.4998077E-1,-1.4681683E-1,1.5896149E-1],"categories":[],"categories_nodes":[],"categories_segments":[],"categories_sizes":[],"default_left":[0,0,0,0,0,0,0,0,0,0,0,0,0,0,0,0,0,0,0,0,0,0,0,0,0,0,0,0,0,0,0,0,0,0,0,0,0,0,0,0,0],"id":5,"left_children":[1,3,5,-1,7,9,11,13,-1,15,17,19,21,23,25,27,29,31,-1,33,35,37,39,-1,-1,-1,-1,-1,-1,-1,-1,-1,-1,-1,-1,-1,-1,-1,-1,-1,-1],"loss_changes":[9.95371E4,2.1662734E3,6.8418477E3,0E0,1.0619492E3,2.083621E3,3.4868674E3,6.7703125E2,0E0,9.0602344E2,2.9899358E3,1.5666292E3,2.542539E3,3.85E1,1.3392422E3,1.4448315E3,2.2878516E2,2.027395E2,0E0,1.6339753E3,7.91626E-2,1.0790596E3,3.841233E2,0E0,0E0,0E0,0E0,0E0,0E0,0E0,0E0,0E0,0E0,0E0,0E0,0E0,0E0,0E0,0E0,0E0,0E0],"parents":[2147483647,0,0,1,1,2,2,4,4,5,5,6,6,7,7,9,9,10,10,11,11,12,12,13,13,14,14,15,15,16,16,17,17,19,19,20,20,21,21,22,22],"right_children":[2,4,6,-1,8,10,12,14,-1,16,18,20,22,24,26,28,30,32,-1,34,36,38,40,-1,-1,-1,-1,-1,-1,-1,-1,-1,-1,-1,-1,-1,-1,-1,-1,-1,-1],"split_conditions":[-1.7883465E0,-7.6117074E-1,1.3935208E0,-1.5524738E-1,5.7734907E-1,8.290264E-1,-4.5049092E-1,-3.6314166E0,-1.54414E-1,-8.072138E-1,-1.5024445E0,1.2428379E0,1.618251E0,1.9603355E0,2.99E0,6.5495E4,-3.1832078E-1,-2.1643221E-1,-1.4559183E-1,-1.2832175E0,-6.9345504E-1,1.54E0,5.190312E-1,1.431623E-1,-1.7066035E-1,-7.080253E-2,1.1913299E-1,-1.9264136E-3,-1.2972361E-1,-1.2312367E-1,-1.441461E-1,-1.4209431E-1,1.7609668E-1,-1.5988283E-1,1.0479202E-1,-2.051637E-1,-1.5940027E-1,4.814863E-3,-1.4998077E-1,-1.4681683E-1,1.5896149E-1],"split_indices":[14,4,4,0,10,21,12,14,0,14,13,13,17,1,29,0,26,4,0,11,14,29,22,0,0,0,0,0,0,0,0,0,0,0,0,0,0,0,0,0,0],"split_type":[0,0,0,0,0,0,0,0,0,0,0,0,0,0,0,0,0,0,0,0,0,0,0,0,0,0,0,0,0,0,0,0,0,0,0,0,0,0,0,0,0],"sum_hessian":[6.922225E4,3.1528625E4,3.769363E4,2.5556052E2,3.1273064E4,3.1087363E4,6.6062656E3,3.1148984E4,1.2408042E2,2.9845256E4,1.2421062E3,3.2336255E3,3.3726404E3,2.7569844E4,3.5791409E3,3.9700933E3,2.5875162E4,5.852469E2,6.568594E2,2.9455247E3,2.8810062E2,2.9004927E3,4.721478E2,2.7566725E4,3.117631E0,4.1998145E2,3.1591594E3,1.3303657E3,2.6397275E3,7.2519473E3,1.8623215E4,2.0047274E1,5.6519965E2,2.5449078E2,2.691034E3,1.2508909E1,2.755917E2,5.573328E2,2.34316E3,4.4659172E1,4.2748862E2],"tree_param":{"num_deleted":"0","num_feature":"30","num_nodes":"41","size_leaf_vector":"1"}},{"base_weights":[-2.0120237E-2,1.3372837E0,-9.6902066E-1,1.3480401E0,-1.4601262E-1,-1.1144785E0,3.0757344E-1,1.3536657E0,-1.5750961E-1,-1.3390195E0,-7.952138E-1,1.048943E0,-4.0573582E-1,3.8612464E-1,1.3607564E0,-1.3636608E0,2.66109E-1,1.0908784E-1,-1.0998863E0,-1.6510385E-1,1.1675581E0,7.153832E-1,-1.5045164E0,-1.730467E-1,1.4568204E-1,1.3704525E-1,1.05635345E-1,-1.3856576E-1,4.8127238E-2,-1.391235E-1,1.9149904E-1,9.7822174E-2,-7.3933125E-2,7.667752E-2,-1.2293569E-1,1.24423385E-1,-1.5525614E-1,1.1494204E-1,-1.4827645E-1,-1.604506E-1,-1.4337283E-1],"categories":[],"categories_nodes":[],"categories_segments":[],"categories_sizes":[],"default_left":[0,0,0,0,0,0,0,0,0,0,0,0,0,0,0,0,0,0,0,0,0,0,0,0,0,0,0,0,0,0,0,0,0,0,0,0,0,0,0,0,0],"id":6,"left_children":[1,3,5,7,-1,9,11,13,-1,15,17,19,21,23,25,27,29,31,33,-1,35,37,39,-1,-1,-1,-1,-1,-1,-1,-1,-1,-1,-1,-1,-1,-1,-1,-1,-1,-1],"loss_changes":[8.160009E4,7.8627344E2,6.9241133E3,4.291328E2,0E0,2.3985469E3,2.0177538E3,1.7728125E2,0E0,7.775703E2,3.8087559E3,6.01084E2,2.3969026E3,4.329824E2,7.448828E1,7.860781E2,8.168597E2,2.570229E3,2.4999043E3,0E0,3.758318E2,9.2079785E2,4.6540527E0,0E0,0E0,0E0,0E0,0E0,0E0,0E0,0E0,0E0,0E0,0E0,0E0,0E0,0E0,0E0,0E0,0E0,0E0],"parents":[2147483647,0,0,1,1,2,2,3,3,5,5,6,6,7,7,9,9,10,10,11,11,12,12,13,13,14,14,15,15,16,16,17,17,18,18,20,20,21,21,22,22],"right_children":[2,4,6,8,-1,10,12,14,-1,16,18,20,22,24,26,28,30,32,34,-1,36,38,40,-1,-1,-1,-1,-1,-1,-1,-1,-1,-1,-1,-1,-1,-1,-1,-1,-1,-1],"split_conditions":[-2.6442523E0,5.7734907E-1,2.6334941E0,3.1420606E-1,-1.4601262E-1,3.134821E-1,3.3114463E-1,1.8581349E-1,-1.5750961E-1,1.2038052E0,-5.4288054E-1,-1.237961E0,5.551486E-2,3.6182578E0,-5.4598105E-1,1.7818545E0,1.3148302E0,-5.719887E-1,-1.6395628E0,-1.6510385E-1,1.0417943E0,2.1903637E-1,-4.5049092E-1,-1.730467E-1,1.4568204E-1,1.3704525E-1,1.05635345E-1,-1.3856576E-1,4.8127238E-2,-1.391235E-1,1.9149904E-1,9.7822174E-2,-7.3933125E-2,7.667752E-2,-1.2293569E-1,1.24423385E-1,-1.5525614E-1,1.1494204E-1,-1.4827645E-1,-1.604506E-1,-1.4337283E-1],"split_indices":[14,10,4,12,0,4,10,11,0,26,10,2,2,21,12,22,12,13,19,0,14,3,12,0,0,0,0,0,0,0,0,0,0,0,0,0,0,0,0,0,0],"split_type":[0,0,0,0,0,0,0,0,0,0,0,0,0,0,0,0,0,0,0,0,0,0,0,0,0,0,0,0,0,0,0,0,0,0,0,0,0,0,0,0,0],"sum_hessian":[6.335008E4,2.6064438E4,3.728564E4,2.5965117E4,9.932084E1,3.347191E4,3.8137314E3,2.591578E4,4.9338818E1,1.9649254E4,1.3822654E4,1.869852E3,1.9438793E3,1.8894641E2,2.5726832E4,1.9352316E4,2.969385E2,3.4835962E3,1.0339058E4,7.814536E1,1.7917067E3,9.623319E2,9.8154736E2,6.3265194E1,1.2568122E2,2.492927E4,7.975618E2,1.9124547E4,2.2776924E2,1.4816716E2,1.4877135E2,1.7207153E3,1.7628809E3,6.7027936E2,9.668778E3,1.7431138E3,4.8592983E1,8.0404553E2,1.5828642E2,3.978749E2,5.836724E2],"tree_param":{"num_deleted":"0","num_feature":"30","num_nodes":"41","size_leaf_vector":"1"}},{"base_weights":[-2.085217E-2,1.2346936E0,-1.0109526E0,1.257561E0,-1.3909052E-1,-1.3022109E0,-4.16211E-1,1.324465E0,7.9121864E-1,-1.3221262E0,7.6971404E-2,1.0322448E0,-6.9122E-1,-1.6888092E-1,1.3249344E0,-5.1685154E-1,1.0659983E0,-2.1857533E-1,-1.3407459E0,-1.347879E-1,1.7038388E0,1.3327731E0,-1.442163E-1,5.9044324E-2,-1.0837226E0,1.3252924E-1,-1.4244203E-1,1.3055813E-1,-1.632218E-1,-1.5663779E-1,1.1945524E-1,1.5675806E-1,-1.3293426E-1,-1.3327199E-1,-1.3685268E-1,-1.4386871E-1,1.8311784E-1,-1.4408281E-1,1.454467E-1,8.123319E-2,-5.29101E-2,-1.3261168E-1,1.3842039E-2],"categories":[],"categories_nodes":[],"categories_segments":[],"categories_sizes":[],"default_left":[0,0,0,0,0,0,0,0,0,0,0,0,0,0,0,0,0,0,0,0,0,0,0,0,0,0,0,0,0,0,0,0,0,0,0,0,0,0,0,0,0,0,0],"id":7,"left_children":[1,3,5,7,-1,9,11,13,15,17,19,21,23,-1,25,27,29,31,33,-1,35,37,-1,39,41,-1,-1,-1,-1,-1,-1,-1,-1,-1,-1,-1,-1,-1,-1,-1,-1,-1,-1],"loss_changes":[7.449862E4,1.5881719E3,5.8035547E3,8.162383E2,0E0,6.178594E2,4.388871E3,3.4632812E1,1.1827363E3,4.5527344E2,7.466026E2,1.3093877E3,2.7266416E3,0E0,2.4433594E1,1.1641034E3,9.217854E2,7.343231E2,3.0390625E0,0E0,6.280371E1,5.314529E2,0E0,1.4097866E3,1.8009854E3,0E0,0E0,0E0,0E0,0E0,0E0,0E0,0E0,0E0,0E0,0E0,0E0,0E0,0E0,0E0,0E0,0E0,0E0],"parents":[2147483647,0,0,1,1,2,2,3,3,5,5,6,6,7,7,8,8,9,9,10,10,11,11,12,12,14,14,15,15,16,16,17,17,18,18,20,20,21,21,23,23,24,24],"right_children":[2,4,6,8,-1,10,12,14,16,18,20,22,24,-1,26,28,30,32,34,-1,36,38,-1,40,42,-1,-1,-1,-1,-1,-1,-1,-1,-1,-1,-1,-1,-1,-1,-1,-1,-1,-1],"split_conditions":[-1.7883465E0,5.7734907E-1,7.769873E-1,-3.6314166E0,-1.3909052E-1,1.2038052E0,-4.727546E-1,-1.634966E0,-8.979143E-1,7.5E-1,1.3148302E0,2.5287497E-1,7.19E0,-1.6888092E-1,-1.7187281E-1,-2.7080896E0,-4.980842E-1,-9.910337E-1,2.65929E-1,-1.347879E-1,4.5931676E-1,-1.0653404E0,-1.442163E-1,-2.0032373E-1,8.247738E-1,1.3252924E-1,-1.4244203E-1,1.3055813E-1,-1.632218E-1,-1.5663779E-1,1.1945524E-1,1.5675806E-1,-1.3293426E-1,-1.3327199E-1,-1.3685268E-1,-1.4386871E-1,1.8311784E-1,-1.4408281E-1,1.454467E-1,8.123319E-2,-5.29101E-2,-1.3261168E-1,1.3842039E-2],"split_indices":[14,10,4,14,0,26,20,24,6,29,12,13,29,0,3,10,11,20,4,0,25,11,0,8,20,0,0,0,0,0,0,0,0,0,0,0,0,0,0,0,0,0,0],"split_type":[0,0,0,0,0,0,0,0,0,0,0,0,0,0,0,0,0,0,0,0,0,0,0,0,0,0,0,0,0,0,0,0,0,0,0,0,0,0,0,0,0,0,0],"sum_hessian":[5.9926914E4,2.6421533E4,3.350538E4,2.6193922E4,2.2761224E2,2.249022E4,1.1015157E4,2.2905877E4,3.2880457E3,2.2170129E4,3.2009247E2,1.7572217E3,9.257936E3,3.0070574E0,2.290287E4,5.706453E2,2.7174001E3,3.6807156E2,2.1802057E4,1.7073236E2,1.493601E2,1.5673242E3,1.8989745E2,3.1800867E3,6.077849E3,2.2900404E4,2.4637697E0,2.1658676E2,3.5405856E2,1.2600657E2,2.5913938E3,1.4097198E2,2.2709958E2,1.6953193E4,4.8488633E3,5.41554E0,1.4394456E2,6.542159E1,1.5019026E3,1.3941278E3,1.7859589E3,5.071839E3,1.00601025E3],"tree_param":{"num_deleted":"0","num_feature":"30","num_nodes":"43","size_leaf_vector":"1"}},{"base_weights":[1.8045293E-2,1.1242133E0,-9.5290005E-1,-6.9554925E-1,1.204082E0,-1.2116569E0,-3.6508042E-1,7.928814E-1,-1.3895391E0,1.2614906E0,3.3123115E-1,-1.16420975E-2,-1.250813E0,3.3235908E-1,-7.578075E-1,1.6607205E0,-1.31775E-1,-1.4620981E0,-1.3066438E-1,1.2680951E0,-1.4676423E-1,-8.137925E-1,1.2729667E0,7.9149395E-1,-1.3155739E-1,-1.2980034E0,-9.9264234E-1,1.4731524E0,2.6084907E-2,1.6075684E0,-9.8388946E-1,1.081327E-1,2.094055E-1,-1.5197377E-1,-1.3208446E-1,1.2866968E-1,1.0052716E-1,-1.4850071E-1,1.2863839E-1,-1.4674531E-1,1.3745143E-1,-1.3914324E-1,1.464642E-1,-1.290659E-1,-1.3217793E-1,1.5888661E-1,-1.15819216E-1,1.556211E-1,-1.5865351E-1,1.3722585E-1,-3.269324E-2,2.051229E-1,-1.4173366E-1,-1.1837564E-1,2.2541163E-2],"categories":[],"categories_nodes":[],"categories_segments":[],"categories_sizes":[],"default_left":[0,0,0,0,0,0,0,0,0,0,0,0,0,0,0,0,0,0,0,0,0,0,0,0,0,0,0,0,0,0,0,0,0,0,0,0,0,0,0,0,0,0,0,0,0,0,0,0,0,0,0,0,0,0,0],"id":8,"left_children":[1,3,5,7,9,11,13,15,17,19,21,23,25,27,29,31,-1,33,-1,35,-1,37,39,41,-1,43,45,47,49,51,53,-1,-1,-1,-1,-1,-1,-1,-1,-1,-1,-1,-1,-1,-1,-1,-1,-1,-1,-1,-1,-1,-1,-1,-1],"loss_changes":[6.1773598E4,3.908457E3,4.658465E3,1.1693992E3,1.2901758E3,9.992969E2,2.5649575E3,6.6213086E2,2.7313232E0,4.3744922E2,1.7164131E3,7.058637E2,2.4963477E2,1.1787749E3,3.205209E3,6.1948547E1,0E0,1.2747192E0,0E0,1.1657031E2,0E0,1.0147922E3,2.4503491E2,6.1497E2,0E0,1.3339844E0,1.3638955E3,1.8393628E2,1.2649204E3,7.048081E2,1.3220386E3,0E0,0E0,0E0,0E0,0E0,0E0,0E0,0E0,0E0,0E0,0E0,0E0,0E0,0E0,0E0,0E0,0E0,0E0,0E0,0E0,0E0,0E0,0E0,0E0],"parents":[2147483647,0,0,1,1,2,2,3,3,4,4,5,5,6,6,7,7,8,8,9,9,10,10,11,11,12,12,13,13,14,14,15,15,17,17,19,19,21,21,22,22,23,23,25,25,26,26,27,27,28,28,29,29,30,30],"right_children":[2,4,6,8,10,12,14,16,18,20,22,24,26,28,30,32,-1,34,-1,36,-1,38,40,42,-1,44,46,48,50,52,54,-1,-1,-1,-1,-1,-1,-1,-1,-1,-1,-1,-1,-1,-1,-1,-1,-1,-1,-1,-1,-1,-1,-1,-1],"split_conditions":[-1.3371689E0,8.025421E-2,8.932194E-1,-1.070649E0,-2.7784643E-1,7.7E-1,-4.5049092E-1,-3.214141E-1,-1.7883465E0,5.7734907E-1,2.0331E0,-7.767344E-1,4.5331562E-1,-9.715879E-1,9.1207683E-1,-3.2940558E-1,-1.31775E-1,5.7734907E-1,-1.3066438E-1,5.2766895E-1,-1.4676423E-1,1.3519899E0,5.610536E-1,-1.9084066E-2,-1.3155739E-1,3.134821E-1,4.5931676E-1,1.3300167E-1,-1.1709977E0,-2.2601504E-3,4.79548E-1,1.081327E-1,2.094055E-1,-1.5197377E-1,-1.3208446E-1,1.2866968E-1,1.0052716E-1,-1.4850071E-1,1.2863839E-1,-1.4674531E-1,1.3745143E-1,-1.3914324E-1,1.464642E-1,-1.290659E-1,-1.3217793E-1,1.5888661E-1,-1.15819216E-1,1.556211E-1,-1.5865351E-1,1.3722585E-1,-3.269324E-2,2.051229E-1,-1.4173366E-1,-1.1837564E-1,2.2541163E-2],"split_indices":[14,4,4,7,12,29,12,6,14,10,4,6,25,14,4,6,0,10,0,16,0,13,18,27,0,4,25,9,25,14,21,0,0,0,0,0,0,0,0,0,0,0,0,0,0,0,0,0,0,0,0,0,0,0,0],"split_type":[0,0,0,0,0,0,0,0,0,0,0,0,0,0,0,0,0,0,0,0,0,0,0,0,0,0,0,0,0,0,0,0,0,0,0,0,0,0,0,0,0,0,0,0,0,0,0,0,0,0,0,0,0,0,0],"sum_hessian":[5.7513777E4,2.6884705E4,3.0629074E4,1.1300234E3,2.5754682E4,2.1266531E4,9.362542E3,3.592919E2,7.7073157E2,2.4164879E4,1.5898022E3,6.720321E2,2.05945E4,3.3728645E3,5.9896777E3,2.5475581E2,1.0453607E2,4.0211774E2,3.6861383E2,2.4107074E4,5.780485E1,7.1752466E2,8.722775E2,4.161216E2,2.5591052E2,1.7408422E4,3.1860774E3,7.1306586E2,2.6597986E3,5.2201373E2,5.467664E3,1.10502655E2,1.4425316E2,2.7865244E2,1.2346531E2,2.251001E4,1.5970647E3,5.4396643E2,1.7355829E2,3.068707E1,8.4159045E2,9.782417E1,3.1829742E2,1.3342228E4,4.066194E3,1.9148889E2,2.9945884E3,6.946989E2,1.8366932E1,5.519896E2,2.107809E3,4.555242E2,6.648951E1,4.6921855E3,7.754785E2],"tree_param":{"num_deleted":"0","num_feature":"30","num_nodes":"55","size_leaf_vector":"1"}},{"base_weights":[1.191984E-2,1.1377151E0,-9.428187E-1,-4.1044924E-1,1.186367E0,-1.2163552E0,-4.244384E-1,1.0780535E0,-1.3715544E-1,1.2467525E0,7.642367E-1,-1.2338744E0,3.711664E-1,-9.554773E-1,1.6944261E-1,-1.2945394E-1,1.6236975E0,-1.5997143E-1,1.2487644E0,-5.0848746E-1,1.0249895E0,-8.5958713E-1,-1.2618376E0,1.4525351E-1,-1.3007507E-1,1.1334718E0,-1.1067581E0,6.0465884E-1,-8.12302E-1,1.21916115E-1,1.8860482E-1,1.2494435E-1,-1.6974962E-1,-1.5436512E-1,1.1573382E-1,-1.5084007E-1,1.0949542E-1,-1.2667419E-1,1.2123555E-1,-1.2928349E-1,-1.2578717E-1,1.3570532E-1,-1.5601417E-1,5.432379E-2,-1.2263944E-1,1.0746729E-1,-4.377918E-2,-1.3542156E-1,7.379592E-2],"categories":[],"categories_nodes":[],"categories_segments":[],"categories_sizes":[],"default_left":[0,0,0,0,0,0,0,0,0,0,0,0,0,0,0,0,0,0,0,0,0,0,0,0,0,0,0,0,0,0,0,0,0,0,0,0,0,0,0,0,0,0,0,0,0,0,0,0,0],"id":9,"left_children":[1,3,5,7,9,11,13,15,-1,17,19,21,23,25,27,-1,29,-1,31,33,35,37,39,-1,-1,41,43,45,47,-1,-1,-1,-1,-1,-1,-1,-1,-1,-1,-1,-1,-1,-1,-1,-1,-1,-1,-1,-1],"loss_changes":[5.815029E4,1.870459E3,4.1505215E3,1.0846813E3,6.126133E2,5.334043E2,3.1896448E3,3.8741516E2,0E0,1.2258789E2,1.0010751E3,1.9728516E2,3.814329E2,1.6885693E3,2.0407256E3,0E0,2.3429321E1,0E0,4.4226562E1,8.869703E2,4.4523267E2,1.1156943E3,5.4296875E-1,0E0,0E0,2.195581E2,9.835674E2,1.6217527E3,1.2334937E3,0E0,0E0,0E0,0E0,0E0,0E0,0E0,0E0,0E0,0E0,0E0,0E0,0E0,0E0,0E0,0E0,0E0,0E0,0E0,0E0],"parents":[2147483647,0,0,1,1,2,2,3,3,4,4,5,5,6,6,7,7,9,9,10,10,11,11,12,12,13,13,14,14,16,16,18,18,19,19,20,20,21,21,22,22,25,25,26,26,27,27,28,28],"right_children":[2,4,6,8,10,12,14,16,-1,18,20,22,24,26,28,-1,30,-1,32,34,36,38,40,-1,-1,42,44,46,48,-1,-1,-1,-1,-1,-1,-1,-1,-1,-1,-1,-1,-1,-1,-1,-1,-1,-1,-1,-1],"split_conditions":[-1.6125561E0,-7.56656E-2,7.4314165E-1,-1.070649E0,-1.7719404E0,1.7818545E0,3.0341303E-1,1.3284142E0,-1.3715544E-1,1.4915822E-1,-8.605068E-1,-1.3307246E0,7.5E-1,-1.490677E0,1.6178952E-1,-1.2945394E-1,-1.1964481E0,-1.5997143E-1,-1.8960869E0,4.4047294E0,-4.0125465E-1,-1.3529804E0,-8.072138E-1,1.4525351E-1,-1.3007507E-1,-1.4717802E0,-6.5902704E-1,-1.2829933E-1,3.7465844E0,1.21916115E-1,1.8860482E-1,1.2494435E-1,-1.6974962E-1,-1.5436512E-1,1.1573382E-1,-1.5084007E-1,1.0949542E-1,-1.2667419E-1,1.2123555E-1,-1.2928349E-1,-1.2578717E-1,1.3570532E-1,-1.5601417E-1,5.432379E-2,-1.2263944E-1,1.0746729E-1,-4.377918E-2,-1.3542156E-1,7.379592E-2],"split_indices":[14,4,4,7,10,22,17,11,0,11,6,6,29,10,8,0,7,0,14,4,21,6,14,0,0,13,21,13,4,0,0,0,0,0,0,0,0,0,0,0,0,0,0,0,0,0,0,0,0],"split_type":[0,0,0,0,0,0,0,0,0,0,0,0,0,0,0,0,0,0,0,0,0,0,0,0,0,0,0,0,0,0,0,0,0,0,0,0,0,0,0,0,0,0,0,0,0,0,0,0,0],"sum_hessian":[5.409934E4,2.482562E4,2.927372E4,7.5616266E2,2.4069457E4,1.9161385E4,1.0112336E4,2.9663312E2,4.595295E2,2.1055527E4,3.01393E3,1.8952455E4,2.089293E2,5.3383022E3,4.7740337E3,5.520704E1,2.414261E2,1.4310899E1,2.1041217E4,5.123278E2,2.501602E3,1.3197173E3,1.7632738E4,1.2695081E2,8.19785E1,3.600525E2,4.97825E3,3.3079663E3,1.4660673E3,9.719755E1,1.4422855E2,2.1036943E4,4.273393E0,3.1602158E2,1.9630623E2,6.667759E1,2.4349246E3,1.1032982E3,2.1641907E2,1.9632479E3,1.566949E4,3.329153E2,2.7137188E1,3.3631613E2,4.6419336E3,2.2799604E3,1.028006E3,1.0864213E3,3.7964597E2],"tree_param":{"num_deleted":"0","num_feature":"30","num_nodes":"49","size_leaf_vector":"1"}},{"base_weights":[3.2933626E-2,1.1288031E0,-8.400442E-1,-1.3018635E-1,1.14992E0,-1.0107685E0,4.6590414E-2,1.2147986E0,7.0863926E-1,-3.9613774E-1,-1.110363E0,-1.0749323E0,3.953697E-1,-1.4763896E-1,1.2156833E0,9.661118E-1,-3.804945E-1,3.687835E-1,-1.092772E0,-4.0315685E-1,-1.1750647E0,-1.3917966E0,1.0296062E0,9.5048094E-1,-1.8132481E-1,1.2163595E-1,-1.3138063E-1,1.1156952E-1,-1.4054818E-1,-1.4553992E-1,4.2150702E-2,-1.2349953E-1,1.1092658E-1,-1.2770872E-1,1.2245915E-1,-1.24654606E-1,1.282333E-1,-1.1984644E-1,3.546657E-2,-1.3674808E-1,-1.553077E-1,1.4240459E-1,-1.5571289E-1,1.0668694E-1,-1.518962E-1,-8.1354864E-2,6.776079E-2],"categories":[],"categories_nodes":[],"categories_segments":[],"categories_sizes":[],"default_left":[0,0,0,0,0,0,0,0,0,0,0,0,0,0,0,0,0,0,0,0,0,0,0,0,0,0,0,0,0,0,0,0,0,0,0,0,0,0,0,0,0,0,0,0,0,0,0],"id":10,"left_children":[1,3,5,-1,7,9,11,13,15,17,19,21,23,-1,25,27,29,31,33,35,37,39,41,43,45,-1,-1,-1,-1,-1,-1,-1,-1,-1,-1,-1,-1,-1,-1,-1,-1,-1,-1,-1,-1,-1,-1],"loss_changes":[4.8808695E4,1.1626191E3,4.2986016E3,0E0,6.4123047E2,1.4572168E3,1.7943513E3,4.834961E1,8.071726E2,1.7706359E3,9.3716016E2,7.2708325E2,1.1202908E3,0E0,3.5021484E1,8.2717456E2,4.754651E2,1.8826892E3,7.442898E2,2.4453735E3,6.724219E2,1.586792E0,1.4809392E2,5.140801E2,9.32922E2,0E0,0E0,0E0,0E0,0E0,0E0,0E0,0E0,0E0,0E0,0E0,0E0,0E0,0E0,0E0,0E0,0E0,0E0,0E0,0E0,0E0,0E0],"parents":[2147483647,0,0,1,1,2,2,4,4,5,5,6,6,7,7,8,8,9,9,10,10,11,11,12,12,14,14,15,15,16,16,17,17,18,18,19,19,20,20,21,21,22,22,23,23,24,24],"right_children":[2,4,6,-1,8,10,12,14,16,18,20,22,24,-1,26,28,30,32,34,36,38,40,42,44,46,-1,-1,-1,-1,-1,-1,-1,-1,-1,-1,-1,-1,-1,-1,-1,-1,-1,-1,-1,-1,-1,-1],"split_conditions":[-1.7883465E0,-7.6117074E-1,1.6182641E0,-1.3018635E-1,-1.421692E0,1.29E0,-7.444976E-2,-7.0435846E-1,3.2270825E-1,-1.2034326E-1,-1.0697078E0,2.1790113E0,-7.0097667E-1,-1.4763896E-1,2.174633E0,4.7700176E-1,-1.4930025E0,5.106306E-1,1.7818545E0,9.118228E-1,1.2038052E0,7E2,-2.0041993E0,1.3545768E-1,1.2625025E-1,1.2163595E-1,-1.3138063E-1,1.1156952E-1,-1.4054818E-1,-1.4553992E-1,4.2150702E-2,-1.2349953E-1,1.1092658E-1,-1.2770872E-1,1.2245915E-1,-1.24654606E-1,1.282333E-1,-1.1984644E-1,3.546657E-2,-1.3674808E-1,-1.553077E-1,1.4240459E-1,-1.5571289E-1,1.0668694E-1,-1.518962E-1,-8.1354864E-2,6.776079E-2],"split_indices":[14,4,4,0,12,29,23,11,15,23,19,17,12,0,7,26,3,4,22,7,26,29,19,27,28,0,0,0,0,0,0,0,0,0,0,0,0,0,0,0,0,0,0,0,0,0,0],"split_type":[0,0,0,0,0,0,0,0,0,0,0,0,0,0,0,0,0,0,0,0,0,0,0,0,0,0,0,0,0,0,0,0,0,0,0,0,0,0,0,0,0,0,0,0,0,0,0],"sum_hessian":[5.1017387E4,2.2620742E4,2.8396643E4,1.9430603E2,2.2426438E4,2.3811518E4,4.585124E3,1.9550326E4,2.8761099E3,3.3210706E3,2.0490447E4,1.0871713E3,3.497953E3,5.8775396E0,1.954445E4,2.326286E3,5.4982385E2,1.5831759E3,1.7378948E3,1.7181234E3,1.8772324E4,9.4519867E2,1.4197261E2,1.7819988E3,1.7159541E3,1.9539746E4,4.7033625E0,2.188764E3,1.3752214E2,2.3459145E2,3.152324E2,4.998672E2,1.0833087E3,1.6102684E3,1.2762638E2,1.1452974E3,5.72826E2,1.848971E4,2.82614E2,8.2960126E2,1.1559744E2,1.2357821E2,1.83944E1,1.7023334E3,7.966545E1,9.8845056E2,7.275036E2],"tree_param":{"num_deleted":"0","num_feature":"30","num_nodes":"47","size_leaf_vector":"1"}},{"base_weights":[2.5019817E-2,1.0970825E0,-8.185547E-1,1.1261413E0,-1.4191376E0,-1.0758632E0,-3.3936155E-1,1.1947395E0,6.5183175E-1,-1.3237058E-1,-1.6703799E0,-3.367256E-1,-1.14392E0,5.843516E-1,-6.0841066E-1,1.1961404E0,-1.3925672E-1,-1.9429013E-1,1.1272779E0,-1.801353E-1,-1.2689184E-1,6.2885046E-1,-1.21371664E-1,-1.1708695E0,3.4143472E-1,1.0210303E0,-7.50778E-1,-9.2468336E-2,-1.1801132E0,-1.1576008E-1,1.1971964E-1,-1.0017705E-1,1.4768538E-1,1.1546995E-1,-2.2676189E-1,-1.2072861E-1,1.4834075E-1,-1.2058734E-1,-6.0466785E-2,-1.238783E-1,1.714344E-1,3.857279E-2,1.3590091E-1,1.1623999E-1,-1.3680664E-1,4.6844672E-2,-9.5479935E-2,8.2210384E-2,-1.2928478E-1],"categories":[],"categories_nodes":[],"categories_segments":[],"categories_sizes":[],"default_left":[0,0,0,0,0,0,0,0,0,0,0,0,0,0,0,0,0,0,0,0,0,0,0,0,0,0,0,0,0,0,0,0,0,0,0,0,0,0,0,0,0,0,0,0,0,0,0,0,0],"id":11,"left_children":[1,3,5,7,9,11,13,15,17,-1,19,21,23,25,27,29,-1,31,33,-1,-1,35,-1,37,39,41,43,45,47,-1,-1,-1,-1,-1,-1,-1,-1,-1,-1,-1,-1,-1,-1,-1,-1,-1,-1,-1,-1],"loss_changes":[4.2882668E4,1.528373E3,3.2716133E3,6.7088086E2,3.5152893E0,8.6810547E2,2.3047827E3,6.702734E1,1.0503903E3,0E0,9.704132E-1,1.2346267E3,6.332344E2,1.2204956E3,2.1181472E3,4.618164E1,0E0,1.2699424E3,1.5822437E2,0E0,0E0,1.0910109E3,0E0,3.0701562E2,6.1499664E2,3.3806348E2,6.111999E2,1.8268059E3,7.69979E2,0E0,0E0,0E0,0E0,0E0,0E0,0E0,0E0,0E0,0E0,0E0,0E0,0E0,0E0,0E0,0E0,0E0,0E0,0E0,0E0],"parents":[2147483647,0,0,1,1,2,2,3,3,4,4,5,5,6,6,7,7,8,8,10,10,11,11,12,12,13,13,14,14,15,15,17,17,18,18,21,21,23,23,24,24,25,25,26,26,27,27,28,28],"right_children":[2,4,6,8,10,12,14,16,18,-1,20,22,24,26,28,30,-1,32,34,-1,-1,36,-1,38,40,42,44,46,48,-1,-1,-1,-1,-1,-1,-1,-1,-1,-1,-1,-1,-1,-1,-1,-1,-1,-1,-1,-1],"split_conditions":[-1.7883465E0,-1.7187281E-1,7.769873E-1,-1.8909763E0,3.2420903E-1,-1.3307246E0,-4.411773E-1,9.566491E-2,2.6334941E0,-1.3237058E-1,5.619217E-1,-1.9805999E-1,1.2038052E0,-1.2829933E-1,4.311884E-2,-4.849965E-1,-1.3925672E-1,1.66784E5,1.55887E5,-1.801353E-1,-1.2689184E-1,-2.1643221E-1,-1.21371664E-1,3.4279E2,1.3148302E0,4.985958E-1,-2.0041993E0,6.4508E4,-2.4710214E0,-1.1576008E-1,1.1971964E-1,-1.0017705E-1,1.4768538E-1,1.1546995E-1,-2.2676189E-1,-1.2072861E-1,1.4834075E-1,-1.2058734E-1,-6.0466785E-2,-1.238783E-1,1.714344E-1,3.857279E-2,1.3590091E-1,1.1623999E-1,-1.3680664E-1,4.6844672E-2,-9.5479935E-2,8.2210384E-2,-1.2928478E-1],"split_indices":[14,3,4,10,4,6,8,12,4,0,10,26,26,13,14,4,0,0,0,0,0,4,0,29,12,11,19,0,15,0,0,0,0,0,0,0,0,0,0,0,0,0,0,0,0,0,0,0,0],"split_type":[0,0,0,0,0,0,0,0,0,0,0,0,0,0,0,0,0,0,0,0,0,0,0,0,0,0,0,0,0,0,0,0,0,0,0,0,0,0,0,0,0,0,0,0,0,0,0,0,0],"sum_hessian":[4.7415453E4,2.0879848E4,2.6535605E4,2.0642014E4,2.3783377E2,1.7264158E4,9.271446E3,1.80325E4,2.6095132E3,1.7690634E2,6.0927433E1,1.4560869E3,1.5808072E4,2.0910781E3,7.1803677E3,1.802328E4,9.221123E0,9.390089E2,1.6705044E3,4.3310722E1,1.761671E1,6.93176E2,7.629109E2,1.5526576E4,2.814956E2,1.5758896E3,5.1518854E2,3.7748523E3,3.4055156E3,7.5906663E0,1.801569E4,6.3337085E2,3.0563803E2,1.6577739E3,1.2730431E1,2.2001973E2,4.731563E2,1.4621513E4,9.050634E2,1.3091278E2,1.5058282E2,5.479823E2,1.0279073E3,1.25460976E2,3.8972754E2,2.287423E3,1.4874291E3,1.8119118E2,3.2243245E3],"tree_param":{"num_deleted":"0","num_feature":"30","num_nodes":"49","size_leaf_vector":"1"}},{"base_weights":[3.172958E-2,1.0142605E0,-8.332745E-1,1.1675441E0,2.5709808E-1,3.994948E-1,-9.0479076E-1,-1.2929368E-1,1.170319E0,5.8060485E-1,-7.089719E-1,7.2428423E-1,-1.2794031E-1,-2.0396858E-1,-9.9966013E-1,1.491242E0,1.1652967E0,-7.858931E-1,7.7037966E-1,3.0213094E-1,-1.3790295E0,9.7808874E-1,-1.2948313E0,6.7726624E-1,-8.616784E-1,1.30373E0,-1.0300546E0,-9.0116344E-2,1.5136264E-1,-1.429018E-1,1.16840936E-1,1.12227075E-1,-1.4104475E-1,9.125346E-2,-1.2381762E-1,1.1012399E-1,-1.3256422E-1,-1.5496184E-1,-1.2498975E-1,1.198531E-1,-1.3064644E-1,-1.2138381E-1,-1.5572429E-1,-1.3145159E-1,1.1513885E-1,1.8907802E-1,-1.2269735E-1,1.420931E-1,-1.1481084E-1,-1.071369E-1,-1.4742769E-2],"categories":[],"categories_nodes":[],"categories_segments":[],"categories_sizes":[],"default_left":[0,0,0,0,0,0,0,0,0,0,0,0,0,0,0,0,0,0,0,0,0,0,0,0,0,0,0,0,0,0,0,0,0,0,0,0,0,0,0,0,0,0,0,0,0,0,0,0,0,0,0],"id":12,"left_children":[1,3,5,7,9,11,13,-1,15,17,19,21,-1,23,25,27,29,31,33,35,37,39,41,43,45,47,49,-1,-1,-1,-1,-1,-1,-1,-1,-1,-1,-1,-1,-1,-1,-1,-1,-1,-1,-1,-1,-1,-1,-1,-1],"loss_changes":[3.7891406E4,2.4223262E3,2.0907012E3,1.2003125E2,1.099148E3,7.1021094E2,1.4897715E3,0E0,2.621289E1,6.8373175E2,5.982317E2,5.601268E2,0E0,1.5499594E3,1.3832051E3,1.5480835E1,1.3957031E2,3.8499072E2,6.616979E2,4.5999634E2,9.757446E0,4.8973627E2,7.0706177E-1,1.0809253E3,1.5418527E3,7.562668E1,7.102363E2,0E0,0E0,0E0,0E0,0E0,0E0,0E0,0E0,0E0,0E0,0E0,0E0,0E0,0E0,0E0,0E0,0E0,0E0,0E0,0E0,0E0,0E0,0E0,0E0],"parents":[2147483647,0,0,1,1,2,2,3,3,4,4,5,5,6,6,8,8,9,9,10,10,11,11,13,13,14,14,15,15,16,16,17,17,18,18,19,19,20,20,21,21,22,22,23,23,24,24,25,25,26,26],"right_children":[2,4,6,8,10,12,14,-1,16,18,20,22,-1,24,26,28,30,32,34,36,38,40,42,44,46,48,50,-1,-1,-1,-1,-1,-1,-1,-1,-1,-1,-1,-1,-1,-1,-1,-1,-1,-1,-1,-1,-1,-1,-1,-1],"split_conditions":[-1.3371689E0,-1.7719404E0,7.7E-1,-5.3194803E-1,1.999E1,1.2033988E-1,-1.0697078E0,-1.2929368E-1,-4.7434616E-1,-1.0100361E0,-3.3054072E-1,1.1784588E0,-1.2794031E-1,-6.518399E-1,-1.6127653E0,3.2218E2,1.4915822E-1,-1.2556448E0,5.4748064E-1,-5.489088E-1,-1.7883465E0,7.15018E-1,8.028223E-1,1.1428872E-1,-1.5024445E0,-6.556649E-1,3.089582E-1,-9.0116344E-2,1.5136264E-1,-1.429018E-1,1.16840936E-1,1.12227075E-1,-1.4104475E-1,9.125346E-2,-1.2381762E-1,1.1012399E-1,-1.3256422E-1,-1.5496184E-1,-1.2498975E-1,1.198531E-1,-1.3064644E-1,-1.2138381E-1,-1.5572429E-1,-1.3145159E-1,1.1513885E-1,1.8907802E-1,-1.2269735E-1,1.420931E-1,-1.1481084E-1,-1.071369E-1,-1.4742769E-2],"split_indices":[14,10,29,11,29,13,19,0,11,10,21,1,0,12,17,29,11,25,10,13,14,3,17,17,13,5,28,0,0,0,0,0,0,0,0,0,0,0,0,0,0,0,0,0,0,0,0,0,0,0,0],"split_type":[0,0,0,0,0,0,0,0,0,0,0,0,0,0,0,0,0,0,0,0,0,0,0,0,0,0,0,0,0,0,0,0,0,0,0,0,0,0,0,0,0,0,0,0,0,0,0,0,0,0,0],"sum_hessian":[4.4581727E4,2.0872799E4,2.3708928E4,1.7358182E4,3.5146165E3,1.299751E3,2.2409178E4,1.9030436E1,1.7339152E4,2.633229E3,8.8138745E2,1.0895431E3,2.1020786E2,2.672196E3,1.9736982E4,2.62609E2,1.7076543E4,3.207178E2,2.3125112E3,3.5151215E2,5.298753E2,9.683378E2,1.21205284E2,1.1420228E3,1.5301731E3,2.5650214E2,1.9480479E4,2.0703735E0,2.6053864E2,1.9914713E1,1.7056629E4,7.889073E1,2.4182707E2,2.1601714E3,1.523398E2,2.3598532E2,1.1552682E2,2.2355264E2,3.063227E2,8.835566E2,8.478125E1,9.691749E1,2.4287794E1,2.1923726E2,9.227856E2,1.7879517E2,1.3513779E3,2.4520166E2,1.1300492E1,1.8609197E4,8.712822E2],"tree_param":{"num_deleted":"0","num_feature":"30","num_nodes":"51","size_leaf_vector":"1"}},{"base_weights":[3.0877085E-2,1.0003256E0,-7.9240495E-1,-5.6117564E-1,1.0671889E0,-1.0778519E0,-3.0237755E-1,-1.233472E0,7.353845E-1,-4.8447394E-1,1.090268E0,-3.7202585E-1,-1.1463516E0,3.844172E-1,-7.6171786E-1,-1.2822556E-1,-1.17226414E-1,1.3651638E0,-1.255402E-1,1.235008E-1,-1.4100004E0,1.1004175E0,-1.2748097E-1,-1.1734722E-1,1.4178779E0,-1.1648659E-1,4.3132588E-1,-7.484104E-1,7.284169E-1,-5.2754585E-2,-1.2464408E0,-1.0638463E-1,1.3874362E-1,-1.6294788E-1,-1.3221698E-1,1.1558652E-1,7.936559E-2,-1.2121656E-1,2.4234279E-1,1.2549792E-1,-1.18505396E-1,1.1969286E-1,-1.286755E-1,-5.841574E-2,1.0526534E-1,-8.145867E-2,1.0014748E-1,-1.3368247E-1,-1.2173046E-1],"categories":[],"categories_nodes":[],"categories_segments":[],"categories_sizes":[],"default_left":[0,0,0,0,0,0,0,0,0,0,0,0,0,0,0,0,0,0,0,0,0,0,0,0,0,0,0,0,0,0,0,0,0,0,0,0,0,0,0,0,0,0,0,0,0,0,0,0,0],"id":13,"left_children":[1,3,5,7,9,11,13,15,17,19,21,23,25,27,29,-1,-1,31,-1,-1,33,35,-1,-1,37,-1,39,41,43,45,47,-1,-1,-1,-1,-1,-1,-1,-1,-1,-1,-1,-1,-1,-1,-1,-1,-1,-1],"loss_changes":[3.3019758E4,1.9842461E3,3.129042E3,6.8150134E2,6.529824E2,6.8307227E2,2.5986772E3,3.3203125E-2,3.367671E2,4.2778513E2,4.3233984E2,1.7977787E3,3.7688672E2,1.2871643E3,1.6961448E3,0E0,0E0,1.2485107E1,0E0,0E0,1.2094116E0,3.0314648E2,0E0,0E0,1.0282412E3,0E0,2.0144316E2,8.0745764E2,1.078655E3,1.6114114E3,6.0932617E0,0E0,0E0,0E0,0E0,0E0,0E0,0E0,0E0,0E0,0E0,0E0,0E0,0E0,0E0,0E0,0E0,0E0,0E0],"parents":[2147483647,0,0,1,1,2,2,3,3,4,4,5,5,6,6,7,7,8,8,9,9,10,10,11,11,12,12,13,13,14,14,17,17,20,20,21,21,24,24,26,26,27,27,28,28,29,29,30,30],"right_children":[2,4,6,8,10,12,14,16,18,20,22,24,26,28,30,-1,-1,32,-1,-1,34,36,-1,-1,38,-1,40,42,44,46,48,-1,-1,-1,-1,-1,-1,-1,-1,-1,-1,-1,-1,-1,-1,-1,-1,-1,-1],"split_conditions":[-1.3837447E0,-7.56656E-2,7.4314165E-1,1.3284142E0,-5.3194803E-1,-1.0697078E0,7.68E0,-1.7883465E0,-1.070649E0,-4.886443E0,5.7734907E-1,1.0676847E0,1.7818545E0,9.988505E-3,-5.216598E-1,-1.2822556E-1,-1.17226414E-1,-4.6989303E-2,-1.255402E-1,1.235008E-1,-4.6330637E-1,-3.2225093E-1,-1.2748097E-1,-1.1734722E-1,3.134821E-1,-1.1648659E-1,7.5E-1,-2.8560321E0,-9.376335E-3,2.0125E2,-4.5049092E-1,-1.0638463E-1,1.3874362E-1,-1.6294788E-1,-1.3221698E-1,1.1558652E-1,7.936559E-2,-1.2121656E-1,2.4234279E-1,1.2549792E-1,-1.18505396E-1,1.1969286E-1,-1.286755E-1,-5.841574E-2,1.0526534E-1,-8.145867E-2,1.0014748E-1,-1.3368247E-1,-1.2173046E-1],"split_indices":[14,4,4,11,11,19,29,14,7,8,10,7,22,28,16,0,0,24,0,0,12,16,0,0,4,0,29,16,5,29,12,0,0,0,0,0,0,0,0,0,0,0,0,0,0,0,0,0,0],"split_type":[0,0,0,0,0,0,0,0,0,0,0,0,0,0,0,0,0,0,0,0,0,0,0,0,0,0,0,0,0,0,0,0,0,0,0,0,0,0,0,0,0,0,0,0,0,0,0,0,0],"sum_hessian":[4.1369434E4,1.8998135E4,2.23713E4,7.797911E2,1.8218344E4,1.4135815E4,8.235484E3,5.1355145E2,2.6623962E2,2.667119E2,1.795163E4,1.2510741E3,1.2884741E4,3.3006277E3,4.934857E3,2.7467868E2,2.3887279E2,2.0249515E2,6.374447E1,9.320933E1,1.7350258E2,1.7875455E4,7.6175285E1,8.643829E2,3.866912E2,1.273555E4,1.4919186E2,7.685466E2,2.532081E3,2.004359E3,2.930498E3,1.4149634E0,2.0108017E2,4.457144E1,1.2893114E2,1.5136699E4,2.7387566E3,1.0689608E2,2.797951E2,9.897903E1,5.0212837E1,1.6631923E2,6.0222736E2,5.0142212E2,2.0306589E3,1.1636686E3,8.4069037E2,7.0344464E2,2.2270532E3],"tree_param":{"num_deleted":"0","num_feature":"30","num_nodes":"49","size_leaf_vector":"1"}},{"base_weights":[3.8210325E-2,1.0350775E0,-7.155137E-1,1.1311069E0,5.1087976E-1,-1.0623772E0,-1.7968912E-1,-1.1861404E-1,1.1336342E0,8.8811415E-1,-3.006537E-1,-3.7373203E-1,-1.1304427E0,4.577464E-1,-5.2264553E-1,1.1349276E0,-1.392216E-1,9.99797E-1,-1.3239188E-1,-1.3731476E0,9.299299E-1,-1.15593374E-1,1.2319145E0,-1.14829816E-1,4.047639E-1,7.3187387E-1,-4.7905624E-1,3.4724304E-1,-7.874193E-1,-1.2173285E-1,1.1358994E-1,-1.2036013E-1,1.08267E-1,-1.2220563E-1,-1.4436732E-1,-1.8742524E-1,1.1253263E-1,-1.1875881E-1,2.086122E-1,1.2142511E-1,-1.1611145E-1,8.597156E-2,-1.3550563E-1,1.0257437E-1,-1.3164537E-1,1.2312104E-1,-6.865071E-2,4.3543633E-2,-1.0031702E-1],"categories":[],"categories_nodes":[],"categories_segments":[],"categories_sizes":[],"default_left":[0,0,0,0,0,0,0,0,0,0,0,0,0,0,0,0,0,0,0,0,0,0,0,0,0,0,0,0,0,0,0,0,0,0,0,0,0,0,0,0,0,0,0,0,0,0,0,0,0],"id":14,"left_children":[1,3,5,7,9,11,13,-1,15,17,19,21,23,25,27,29,-1,31,-1,33,35,-1,37,-1,39,41,43,45,47,-1,-1,-1,-1,-1,-1,-1,-1,-1,-1,-1,-1,-1,-1,-1,-1,-1,-1,-1,-1],"loss_changes":[2.9072738E4,8.3803906E2,4.0949668E3,8.379883E1,7.9047626E2,6.2651074E2,1.8933513E3,0E0,4.753125E1,4.3670935E2,1.08331E3,1.5143004E3,3.3410742E2,7.7841864E2,1.2971908E3,3.3515625E1,0E0,3.0775183E2,0E0,2.90802E0,2.1162708E2,0E0,8.19001E2,0E0,1.797237E2,6.266249E2,8.6640436E2,1.2021772E3,1.1394519E3,0E0,0E0,0E0,0E0,0E0,0E0,0E0,0E0,0E0,0E0,0E0,0E0,0E0,0E0,0E0,0E0,0E0,0E0,0E0,0E0],"parents":[2147483647,0,0,1,1,2,2,3,3,4,4,5,5,6,6,8,8,9,9,10,10,11,11,12,12,13,13,14,14,15,15,17,17,19,19,20,20,22,22,24,24,25,25,26,26,27,27,28,28],"right_children":[2,4,6,8,10,12,14,-1,16,18,20,22,24,26,28,30,-1,32,-1,34,36,-1,38,-1,40,42,44,46,48,-1,-1,-1,-1,-1,-1,-1,-1,-1,-1,-1,-1,-1,-1,-1,-1,-1,-1,-1,-1],"split_conditions":[-1.7883465E0,-1.7719404E0,7.4314165E-1,-4.849965E-1,-1.9057643E-1,-1.0697078E0,-5.744691E-1,-1.1861404E-1,3.1420606E-1,5.4809517E-1,2.6334941E0,1.0676847E0,1.7818545E0,8.3015114E-2,1.54E0,-4.8620534E-1,-1.392216E-1,-7.6117074E-1,-1.3239188E-1,1.6598037E-2,1.7874943E0,-1.15593374E-1,3.134821E-1,-1.14829816E-1,7.5E-1,1.2456738E0,-7.4901307E-1,-1.2634338E-1,-6.0539556E-1,-1.2173285E-1,1.1358994E-1,-1.2036013E-1,1.08267E-1,-1.2220563E-1,-1.4436732E-1,-1.8742524E-1,1.1253263E-1,-1.1875881E-1,2.086122E-1,1.2142511E-1,-1.1611145E-1,8.597156E-2,-1.3550563E-1,1.0257437E-1,-1.3164537E-1,1.2312104E-1,-6.865071E-2,4.3543633E-2,-1.0031702E-1],"split_indices":[14,10,4,4,15,19,12,0,12,26,4,7,22,8,29,11,0,4,0,4,11,0,4,0,29,1,18,22,8,0,0,0,0,0,0,0,0,0,0,0,0,0,0,0,0,0,0,0,0],"split_type":[0,0,0,0,0,0,0,0,0,0,0,0,0,0,0,0,0,0,0,0,0,0,0,0,0,0,0,0,0,0,0,0,0,0,0,0,0,0,0,0,0,0,0,0,0,0,0,0,0],"sum_hessian":[3.8691367E4,1.6658562E4,2.2032805E4,1.4078346E4,2.5802166E3,1.3374137E4,8.658667E3,1.4827591E1,1.4063518E4,1.7613662E3,8.188504E2,1.2035775E3,1.217056E4,3.02882E3,5.629847E3,1.405687E4,6.6476884E0,1.6772328E3,8.41334E1,4.374674E2,3.81383E2,8.095028E2,3.9407474E2,1.2030885E4,1.3967503E2,2.343332E3,6.8548785E2,1.3136536E3,4.3161934E3,5.2879443E0,1.4051582E4,6.0306274E1,1.6169265E3,1.4504866E2,2.9241873E2,2.4284071E1,3.570989E2,1.02723885E2,2.9135086E2,9.222401E1,4.745102E1,2.2086238E3,1.3470839E2,2.4499957E2,4.4048828E2,7.080251E2,6.056285E2,6.4715625E2,3.669037E3],"tree_param":{"num_deleted":"0","num_feature":"30","num_nodes":"49","size_leaf_vector":"1"}},{"base_weights":[3.8411517E-2,1.0333371E0,-5.536162E-1,1.0757325E0,-1.182754E-1,7.598288E-2,-7.20015E-1,1.1092966E0,2.7723536E-1,-1.1933703E0,3.586523E-1,8.184398E-2,-8.446904E-1,1.112491E0,-1.16170704E-1,1.2314912E0,-7.144244E-1,-1.1735034E-1,-1.4000915E-1,-1.4257903E-1,7.5324947E-1,-8.5282135E-1,5.914056E-1,5.06505E-1,-9.0211E-1,-1.0680163E-1,1.1144334E-1,1.5122609E-1,-1.292462E-1,1.085737E-1,-1.20336495E-1,-7.9493076E-2,1.18420236E-1,9.29759E-2,-1.1978849E-1,1.1178966E-1,-1.1987438E-1,8.090552E-2,-1.17090285E-1,1.0554314E-1,-1.1985024E-1,-9.4985895E-2,8.412088E-2],"categories":[],"categories_nodes":[],"categories_segments":[],"categories_sizes":[],"default_left":[0,0,0,0,0,0,0,0,0,0,0,0,0,0,0,0,0,0,0,0,0,0,0,0,0,0,0,0,0,0,0,0,0,0,0,0,0,0,0,0,0,0,0],"id":15,"left_children":[1,3,5,7,-1,9,11,13,15,17,19,21,23,25,-1,27,29,-1,-1,31,33,35,37,39,41,-1,-1,-1,-1,-1,-1,-1,-1,-1,-1,-1,-1,-1,-1,-1,-1,-1,-1],"loss_changes":[2.119383E4,1.2624023E3,2.3633516E3,3.5270508E2,0E0,1.692765E3,1.783832E3,9.299219E1,5.0493332E2,1.8857422E0,7.6322003E2,1.144424E3,1.1985098E3,5.4652344E1,0E0,1.945766E2,2.3177338E2,0E0,0E0,1.4726492E3,7.446415E2,5.793256E2,5.9738934E2,5.9098694E2,1.233833E3,0E0,0E0,0E0,0E0,0E0,0E0,0E0,0E0,0E0,0E0,0E0,0E0,0E0,0E0,0E0,0E0,0E0,0E0],"parents":[2147483647,0,0,1,1,2,2,3,3,5,5,6,6,7,7,8,8,9,9,10,10,11,11,12,12,13,13,15,15,16,16,19,19,20,20,21,21,22,22,23,23,24,24],"right_children":[2,4,6,8,-1,10,12,14,16,18,20,22,24,26,-1,28,30,-1,-1,32,34,36,38,40,42,-1,-1,-1,-1,-1,-1,-1,-1,-1,-1,-1,-1,-1,-1,-1,-1,-1,-1],"split_conditions":[-2.3712785E0,1.2671238E0,1.54E0,-5.199408E-1,-1.182754E-1,-2.535155E-2,-1.9669566E0,1.9603355E0,-1.5220747E0,1.1286048E0,3.549545E-1,-2.1895044E-2,-1.157458E0,5.822E3,-1.16170704E-1,3.99E0,-2.8560321E0,-1.1735034E-1,-1.4000915E-1,8.290264E-1,2.5355962E-1,-8.8459057E-1,5.1878524E-1,-3.3789745E-1,1.2038052E0,-1.0680163E-1,1.1144334E-1,1.5122609E-1,-1.292462E-1,1.085737E-1,-1.20336495E-1,-7.9493076E-2,1.18420236E-1,9.29759E-2,-1.1978849E-1,1.1178966E-1,-1.1987438E-1,8.090552E-2,-1.17090285E-1,1.0554314E-1,-1.1985024E-1,-9.4985895E-2,8.412088E-2],"split_indices":[12,9,29,3,0,28,3,1,19,18,25,27,20,0,0,29,16,0,0,21,9,26,24,12,26,0,0,0,0,0,0,0,0,0,0,0,0,0,0,0,0,0,0],"split_type":[0,0,0,0,0,0,0,0,0,0,0,0,0,0,0,0,0,0,0,0,0,0,0,0,0,0,0,0,0,0,0,0,0,0,0,0,0,0,0,0,0,0,0],"sum_hessian":[3.5979324E4,1.3422145E4,2.255718E4,1.3170694E4,2.5144978E2,4.7155615E3,1.7841617E4,1.2639035E4,5.316588E2,8.58257E2,3.8573047E3,2.4008323E3,1.5440786E4,1.2621791E4,1.724453E1,2.7081583E2,2.6084296E2,7.8909784E2,6.9159225E1,1.6993583E3,2.1579465E3,8.468397E2,1.5539927E3,6.290964E2,1.4811689E4,1.0744696E1,1.2611046E4,2.4406625E2,2.6749582E1,5.5454025E1,2.0538892E2,1.1394932E3,5.5986505E2,1.9794031E3,1.7854335E2,1.261175E2,7.207222E2,1.3836493E3,1.7034334E2,4.7617352E2,1.5292285E2,1.441726E4,3.9442932E2],"tree_param":{"num_deleted":"0","num_feature":"30","num_nodes":"43","size_leaf_vector":"1"}},{"base_weights":[3.9445788E-2,9.376514E-1,-6.960532E-1,1.001608E0,-7.158684E-1,-1.0347397E0,-1.977045E-1,1.0721565E0,2.2613882E-1,-1.2408174E0,7.701101E-1,-1.0781043E0,3.1795527E-4,2.5390774E-1,-7.72559E-1,1.0796026E0,-1.18330814E-1,8.414821E-1,-9.2184967E-1,-1.169832E-1,-1.3882179E0,1.336438E0,-1.3375905E-1,-1.119936E-1,-1.9976284E-1,2.0713313E0,-1.1490408E-1,-1.943071E-2,9.338329E-1,-1.1841993E0,6.732443E-3,1.1155768E-1,6.743596E-2,-1.20160304E-1,1.0474807E-1,-1.3388158E-1,1.0125939E-1,-1.6052599E-1,-1.3103922E-1,1.362991E-1,-7.32814E-2,1.6635604E-1,-1.1175338E-1,-1.1391749E-1,2.51293E-1,9.853008E-2,-4.423785E-2,-1.2887162E-1,1.1341546E-1,-1.281301E-1,-1.1681157E-1,8.605606E-2,-1.1715039E-1],"categories":[],"categories_nodes":[],"categories_segments":[],"categories_sizes":[],"default_left":[0,0,0,0,0,0,0,0,0,0,0,0,0,0,0,0,0,0,0,0,0,0,0,0,0,0,0,0,0,0,0,0,0,0,0,0,0,0,0,0,0,0,0,0,0,0,0,0,0,0,0,0,0],"id":16,"left_children":[1,3,5,7,9,11,13,15,17,19,21,23,25,27,29,31,-1,33,35,-1,37,39,-1,-1,41,43,-1,45,47,49,51,-1,-1,-1,-1,-1,-1,-1,-1,-1,-1,-1,-1,-1,-1,-1,-1,-1,-1,-1,-1,-1,-1],"loss_changes":[2.2237766E4,1.6033584E3,3.1234834E3,7.979824E2,4.4162646E2,4.9455664E2,1.9445969E3,2.258789E2,8.6115015E2,2.7479248E0,1.7855237E2,3.8833887E2,1.0593909E3,7.7969543E2,1.0571495E3,1.9357812E2,0E0,3.3520227E2,3.4456577E2,0E0,1.0006714E-1,7.4397125E0,0E0,0E0,8.26092E2,2.2806268E2,0E0,1.272415E3,5.370453E2,1.8713379E0,1.1479156E3,0E0,0E0,0E0,0E0,0E0,0E0,0E0,0E0,0E0,0E0,0E0,0E0,0E0,0E0,0E0,0E0,0E0,0E0,0E0,0E0,0E0,0E0],"parents":[2147483647,0,0,1,1,2,2,3,3,4,4,5,5,6,6,7,7,8,8,9,9,10,10,11,11,12,12,13,13,14,14,15,15,17,17,18,18,20,20,21,21,24,24,25,25,27,27,28,28,29,29,30,30],"right_children":[2,4,6,8,10,12,14,16,18,20,22,24,26,28,30,32,-1,34,36,-1,38,40,-1,-1,42,44,-1,46,48,50,52,-1,-1,-1,-1,-1,-1,-1,-1,-1,-1,-1,-1,-1,-1,-1,-1,-1,-1,-1,-1,-1,-1],"split_conditions":[-1.3371689E0,-1.7187281E-1,7.4314165E-1,-3.1855443E-1,1.2573746E0,7.725292E-1,-4.513874E-2,5.7734907E-1,-1.6416124E-1,3.3371836E-1,1.2766024E0,1.3466136E0,-1.5024445E0,2.983476E-1,8.1544465E-1,5.2766895E-1,-1.18330814E-1,3.7391815E-1,2.1137211E0,-1.169832E-1,-3.8127977E-1,-1.0958457E0,-1.3375905E-1,-1.119936E-1,-8.072138E-1,-1.5327072E0,-1.1490408E-1,-1.5220747E0,-1.3428216E-1,1.54E0,4.311884E-2,1.1155768E-1,6.743596E-2,-1.20160304E-1,1.0474807E-1,-1.3388158E-1,1.0125939E-1,-1.6052599E-1,-1.3103922E-1,1.362991E-1,-7.32814E-2,1.6635604E-1,-1.1175338E-1,-1.1391749E-1,2.51293E-1,9.853008E-2,-4.423785E-2,-1.2887162E-1,1.1341546E-1,-1.281301E-1,-1.1681157E-1,8.605606E-2,-1.1715039E-1],"split_indices":[14,3,4,12,15,23,12,10,21,4,15,12,13,23,11,16,0,4,16,0,12,19,0,0,14,13,0,19,22,29,14,0,0,0,0,0,0,0,0,0,0,0,0,0,0,0,0,0,0,0,0,0,0],"split_type":[0,0,0,0,0,0,0,0,0,0,0,0,0,0,0,0,0,0,0,0,0,0,0,0,0,0,0,0,0,0,0,0,0,0,0,0,0,0,0,0,0,0,0,0,0,0,0,0,0,0,0,0,0],"sum_hessian":[3.36595E4,1.5153489E4,1.850601E4,1.4589572E4,5.639171E2,1.101735E4,7.4886597E3,1.3372613E4,1.2169586E3,4.1682947E2,1.4708765E2,1.057429E4,4.4305927E2,4.1942036E3,3.2944558E3,1.3329131E4,4.34829E1,7.9245496E2,4.2450366E2,2.8737247E2,1.29457E2,1.1622463E2,3.086301E1,1.00933125E4,4.809782E2,1.5784265E2,2.852166E2,2.9922522E3,1.2019515E3,2.1554019E3,1.1390541E3,1.2240747E4,1.0883838E3,7.214006E1,7.203149E2,3.494814E2,7.502223E1,2.8988108E1,1.00468895E2,1.150891E2,1.1355338E0,1.5845636E2,3.2252185E2,1.889473E1,1.3894792E2,8.860562E2,2.106196E3,9.89275E1,1.103024E3,2.9510376E2,1.860298E3,6.6060535E2,4.7844876E2],"tree_param":{"num_deleted":"0","num_feature":"30","num_nodes":"53","size_leaf_vector":"1"}},{"base_weights":[3.5272878E-2,9.227873E-1,-7.0921326E-1,1.0928533E0,3.4059516E-1,4.5656753E-1,-7.966342E-1,-1.1267406E-1,1.095041E0,-4.006858E-1,5.562054E-1,7.534643E-1,-1.2695238E-1,-8.338964E-1,6.514843E-1,1.4088623E-1,1.0878402E0,4.049046E-1,-1.2484158E0,6.741094E-1,-1.2296269E-1,9.809995E-1,-1.2245186E-1,-1.3301855E-1,-9.0998566E-1,1.1926677E0,-1.18395306E-1,-1.4109729E-1,1.0913564E-1,9.295446E-2,-1.4796221E-1,-1.171843E-1,-1.3154696E-1,7.58745E-2,-1.418268E-1,1.1293836E-1,-1.1985717E-1,1.00220285E-1,-1.1601508E-1,-4.705071E-2,-1.0795712E-1,-1.1420976E-1,1.4975886E-1],"categories":[],"categories_nodes":[],"categories_segments":[],"categories_sizes":[],"default_left":[0,0,0,0,0,0,0,0,0,0,0,0,0,0,0,0,0,0,0,0,0,0,0,0,0,0,0,0,0,0,0,0,0,0,0,0,0,0,0,0,0,0,0],"id":17,"left_children":[1,3,5,7,9,11,13,-1,15,17,19,21,-1,23,25,-1,27,29,31,33,-1,35,-1,37,39,41,-1,-1,-1,-1,-1,-1,-1,-1,-1,-1,-1,-1,-1,-1,-1,-1,-1],"loss_changes":[2.0617568E4,1.408998E3,1.7297568E3,5.4725586E1,5.147877E2,6.079138E2,8.523467E2,0E0,2.333789E1,4.9631458E2,5.2605994E2,4.5629425E2,0E0,8.2063086E2,3.953219E2,0E0,9.6109375E1,3.7017197E2,2.7600098E-1,4.155791E2,0E0,2.9482452E2,0E0,1.7599407E3,1.0341729E3,2.200982E2,0E0,0E0,0E0,0E0,0E0,0E0,0E0,0E0,0E0,0E0,0E0,0E0,0E0,0E0,0E0,0E0,0E0],"parents":[2147483647,0,0,1,1,2,2,3,3,4,4,5,5,6,6,8,8,9,9,10,10,11,11,13,13,14,14,16,16,17,17,18,18,19,19,21,21,23,23,24,24,25,25],"right_children":[2,4,6,8,10,12,14,-1,16,18,20,22,-1,24,26,-1,28,30,32,34,-1,36,-1,38,40,42,-1,-1,-1,-1,-1,-1,-1,-1,-1,-1,-1,-1,-1,-1,-1,-1,-1],"split_conditions":[-1.3371689E0,-1.8909763E0,7.7E-1,-5.3194803E-1,-1.6412867E-2,3.9958772E-1,1.2038052E0,-1.1267406E-1,-4.7434616E-1,-6.518399E-1,8.139703E-1,2.3049566E-1,-1.2695238E-1,-1.5024445E0,3.267E1,1.4088623E-1,1.3733153E-1,4.2152554E-1,8.5803276E-1,1.0109043E0,-1.2296269E-1,1.2033988E-1,-1.2245186E-1,-1.0994163E0,-4.5049092E-1,6.215918E-2,-1.18395306E-1,-1.4109729E-1,1.0913564E-1,9.295446E-2,-1.4796221E-1,-1.171843E-1,-1.3154696E-1,7.58745E-2,-1.418268E-1,1.1293836E-1,-1.1985717E-1,1.00220285E-1,-1.1601508E-1,-4.705071E-2,-1.0795712E-1,-1.1420976E-1,1.4975886E-1],"split_indices":[14,10,29,11,28,16,26,0,11,12,9,7,0,13,29,0,11,5,17,15,0,13,0,1,12,20,0,0,0,0,0,0,0,0,0,0,0,0,0,0,0,0,0],"split_type":[0,0,0,0,0,0,0,0,0,0,0,0,0,0,0,0,0,0,0,0,0,0,0,0,0,0,0,0,0,0,0,0,0,0,0,0,0,0,0,0,0,0,0],"sum_hessian":[3.1201664E4,1.4233469E4,1.6968195E4,1.1014972E4,3.2184966E3,1.1833741E3,1.5784821E4,1.0339954E1,1.1004632E4,7.2501E2,2.4934866E3,1.01018115E3,1.7319298E2,1.5389258E4,3.955635E2,2.4247932E2,1.0762152E4,3.7201233E2,3.5299768E2,2.3396416E3,1.53845E2,9.064165E2,1.03764656E2,1.5073568E3,1.38819E4,3.0575967E2,8.980383E1,1.4560347E1,1.0747592E4,2.9139624E2,8.061607E1,1.7342719E2,1.7957051E2,2.2492961E3,9.034546E1,8.490925E2,5.732394E1,7.160159E2,7.913409E2,3.8662744E3,1.0015626E4,3.5002377E1,2.707573E2],"tree_param":{"num_deleted":"0","num_feature":"30","num_nodes":"43","size_leaf_vector":"1"}},{"base_weights":[3.281187E-2,9.0208066E-1,-6.907677E-1,1.0734639E0,2.6558754E-1,-8.9258415E-1,1.19257405E-1,1.0765857E0,-1.2218558E-1,-7.32644E-1,5.723828E-1,-3.0157048E-1,-1.0838984E0,-6.868057E-1,6.985333E-1,1.0781063E0,-1.5520935E-1,-1.1874355E0,8.706862E-1,-1.297575E-1,6.71086E-1,2.0640392E0,-5.047078E-1,-1.1101862E0,8.028447E-1,-1.212576E0,1.9937177E-1,8.347276E-1,-1.245615E-1,1.0796743E-1,-1.08721904E-1,-1.2419665E-1,-1.12380005E-1,1.3238327E-1,-1.1755116E-1,7.415014E-2,-1.6521071E-1,7.345173E-2,3.4809282E-1,7.412893E-3,-1.1234968E-1,-1.0975861E-1,-1.1524029E-1,1.2628031E-1,-1.1872312E-1,-1.2988682E-1,-1.1547633E-1,8.8112354E-2,-1.2949717E-1,-1.2471217E-1,9.2698805E-2],"categories":[],"categories_nodes":[],"categories_segments":[],"categories_sizes":[],"default_left":[0,0,0,0,0,0,0,0,0,0,0,0,0,0,0,0,0,0,0,0,0,0,0,0,0,0,0,0,0,0,0,0,0,0,0,0,0,0,0,0,0,0,0,0,0,0,0,0,0,0,0],"id":18,"left_children":[1,3,5,7,9,11,13,15,-1,17,19,21,23,25,27,29,-1,31,33,-1,35,37,39,41,43,45,47,49,-1,-1,-1,-1,-1,-1,-1,-1,-1,-1,-1,-1,-1,-1,-1,-1,-1,-1,-1,-1,-1,-1,-1],"loss_changes":[1.8315121E4,1.4426377E3,2.5979014E3,7.598633E1,8.602041E2,1.4380889E3,1.4808457E3,4.3273438E1,0E0,4.8260757E2,3.973296E2,1.4966731E3,4.7753906E2,6.181528E2,4.8961597E2,3.649121E1,0E0,3.9111328E-1,1.37409E2,0E0,3.3510382E2,4.6146448E2,1.0269965E3,3.7773438E0,1.2290937E2,2.6531982E0,5.0512637E2,3.3248145E2,0E0,0E0,0E0,0E0,0E0,0E0,0E0,0E0,0E0,0E0,0E0,0E0,0E0,0E0,0E0,0E0,0E0,0E0,0E0,0E0,0E0,0E0,0E0],"parents":[2147483647,0,0,1,1,2,2,3,3,4,4,5,5,6,6,7,7,9,9,10,10,11,11,12,12,13,13,14,14,15,15,17,17,18,18,20,20,21,21,22,22,23,23,24,24,25,25,26,26,27,27],"right_children":[2,4,6,8,10,12,14,16,-1,18,20,22,24,26,28,30,-1,32,34,-1,36,38,40,42,44,46,48,50,-1,-1,-1,-1,-1,-1,-1,-1,-1,-1,-1,-1,-1,-1,-1,-1,-1,-1,-1,-1,-1,-1,-1],"split_conditions":[-1.3371689E0,-1.421692E0,1.6182641E0,-1.7187281E-1,3.7391815E-1,-4.8900098E-1,1.3733153E-1,-1.541958E0,-1.2218558E-1,1.66784E5,5.4905575E-2,-2.150238E0,3.550845E0,1.666304E-1,1.3107072E-1,5.7734907E-1,-1.5520935E-1,-1.7883465E0,-1.070649E0,-1.297575E-1,1.9226183E0,-4.9964604E-1,7.538E4,7.4314165E-1,-8.8459057E-1,-4.5049092E-1,7.19E0,-3.7929374E-1,-1.245615E-1,1.0796743E-1,-1.08721904E-1,-1.2419665E-1,-1.12380005E-1,1.3238327E-1,-1.1755116E-1,7.415014E-2,-1.6521071E-1,7.345173E-2,3.4809282E-1,7.412893E-3,-1.1234968E-1,-1.0975861E-1,-1.1524029E-1,1.2628031E-1,-1.1872312E-1,-1.2988682E-1,-1.1547633E-1,8.8112354E-2,-1.2949717E-1,-1.2471217E-1,9.2698805E-2],"split_indices":[14,12,4,3,4,14,11,14,0,0,18,16,20,28,27,10,0,14,7,0,18,14,0,4,26,12,29,26,0,0,0,0,0,0,0,0,0,0,0,0,0,0,0,0,0,0,0,0,0,0,0],"split_type":[0,0,0,0,0,0,0,0,0,0,0,0,0,0,0,0,0,0,0,0,0,0,0,0,0,0,0,0,0,0,0,0,0,0,0,0,0,0,0,0,0,0,0,0,0,0,0,0,0,0,0],"sum_hessian":[2.9116535E4,1.322659E4,1.5889946E4,1.0420154E4,2.8064353E3,1.2720542E4,3.1694038E3,1.0406532E4,1.3622612E1,6.594311E2,2.1470042E3,3.1113733E3,9.609169E3,1.3252003E3,1.8442035E3,1.0401105E4,5.426659E0,5.13916E2,1.4551508E2,1.0703584E2,2.0399683E3,2.4532399E2,2.8660493E3,9.477531E3,1.3163765E2,8.315012E2,4.9369916E2,1.724002E3,1.202016E2,1.039408E4,7.0254717E0,2.6678418E2,2.471318E2,1.1942131E2,2.6093761E1,1.9806172E3,5.9351143E1,1.273474E2,1.1797659E2,1.4812844E3,1.384765E3,7.3198315E3,2.1576995E3,1.0722144E2,2.4416214E1,3.2497366E2,5.0652753E2,3.393093E2,1.5438986E2,7.2628494E1,1.6513734E3],"tree_param":{"num_deleted":"0","num_feature":"30","num_nodes":"51","size_leaf_vector":"1"}},{"base_weights":[4.3781728E-2,8.8917804E-1,-6.631001E-1,1.0720177E0,2.6106277E-1,-1.0216676E0,-1.3586047E-1,-1.1013569E-1,1.0755498E0,-7.073246E-1,5.282178E-1,-3.0693322E-1,-1.09140456E-1,1.226521E-1,-1.0055844E0,-1.0688267E-1,1.0769628E0,-1.1609518E-1,8.4039617E-1,6.3646495E-1,-1.273478E0,7.004128E-1,-1.093384E-1,6.124346E-1,-4.6902484E-1,1.0508783E0,-1.161373E0,1.3619514E-1,1.0697746E-1,-1.1501181E-1,1.2968872E-1,-5.266711E-2,7.667969E-2,-1.1982285E-1,-1.4793184E-1,1.293361E-1,-1.0867627E-1,8.9413E-2,-1.21138096E-1,9.0454414E-2,-8.1177615E-2,1.20833114E-1,-1.052131E-1,-1.2441144E-1,-1.1362199E-1],"categories":[],"categories_nodes":[],"categories_segments":[],"categories_sizes":[],"default_left":[0,0,0,0,0,0,0,0,0,0,0,0,0,0,0,0,0,0,0,0,0,0,0,0,0,0,0,0,0,0,0,0,0,0,0,0,0,0,0,0,0,0,0,0,0],"id":19,"left_children":[1,3,5,7,9,11,13,-1,15,17,19,21,-1,23,25,-1,27,-1,29,31,33,35,-1,37,39,41,43,-1,-1,-1,-1,-1,-1,-1,-1,-1,-1,-1,-1,-1,-1,-1,-1,-1,-1],"loss_changes":[1.6240337E4,1.4209814E3,2.7979316E3,7.476465E1,7.2257166E2,4.3875E2,1.3474039E3,0E0,3.0148438E1,4.250564E2,4.2763245E2,6.222755E2,0E0,1.3391868E3,4.4113416E2,0E0,1.8135742E1,0E0,1.26421715E2,3.1346667E2,1.5382385E-1,3.6653668E2,0E0,1.2999646E3,9.861062E2,3.3463852E1,1.2438965E0,0E0,0E0,0E0,0E0,0E0,0E0,0E0,0E0,0E0,0E0,0E0,0E0,0E0,0E0,0E0,0E0,0E0,0E0],"parents":[2147483647,0,0,1,1,2,2,3,3,4,4,5,5,6,6,8,8,9,9,10,10,11,11,13,13,14,14,16,16,18,18,19,19,20,20,21,21,23,23,24,24,25,25,26,26],"right_children":[2,4,6,8,10,12,14,-1,16,18,20,22,-1,24,26,-1,28,-1,30,32,34,36,-1,38,40,42,44,-1,-1,-1,-1,-1,-1,-1,-1,-1,-1,-1,-1,-1,-1,-1,-1,-1,-1],"split_conditions":[-1.3371689E0,-1.8909763E0,8.147188E-1,-4.849965E-1,3.7391815E-1,-1.3307246E0,2.2588542E-1,-1.1013569E-1,-5.3194803E-1,1.66784E5,8.139703E-1,-9.847536E-1,-1.09140456E-1,4.311884E-2,-1.8671836E0,-1.0688267E-1,-4.7434616E-1,-1.1609518E-1,1.3284142E0,-2.2834311E-1,1.3501538E0,-1.9805999E-1,-1.093384E-1,8.83E4,-1.6496205E0,-6.608514E-1,-4.5049092E-1,1.3619514E-1,1.0697746E-1,-1.1501181E-1,1.2968872E-1,-5.266711E-2,7.667969E-2,-1.1982285E-1,-1.4793184E-1,1.293361E-1,-1.0867627E-1,8.9413E-2,-1.21138096E-1,9.0454414E-2,-8.1177615E-2,1.20833114E-1,-1.052131E-1,-1.2441144E-1,-1.1362199E-1],"split_indices":[14,10,4,4,4,6,8,0,11,0,9,13,0,14,25,0,11,0,11,25,17,26,0,0,7,16,12,0,0,0,0,0,0,0,0,0,0,0,0,0,0,0,0,0,0],"split_type":[0,0,0,0,0,0,0,0,0,0,0,0,0,0,0,0,0,0,0,0,0,0,0,0,0,0,0,0,0,0,0,0,0,0,0,0,0,0,0,0,0,0,0,0,0],"sum_hessian":[2.7174156E4,1.2374545E4,1.4799612E4,9.584006E3,2.7905393E3,8.808292E3,5.99132E3,1.5046344E1,9.56896E3,6.0302783E2,2.1875115E3,7.8350854E2,8.0247837E3,4.6191924E3,1.3721276E3,5.8036466E0,9.563156E3,4.6653833E2,1.364895E2,2.064143E3,1.23368416E2,3.4356006E2,4.399485E2,2.5271855E3,2.0920066E3,9.622179E1,1.2759058E3,2.3063847E2,9.332518E3,2.5178783E1,1.11310715E2,2.0767995E2,1.8564631E3,9.533702E1,2.8031399E1,2.5817816E2,8.5381905E1,2.189516E3,3.3766946E2,4.1744907E2,1.6745576E3,8.991524E1,6.306548E0,2.8615115E2,9.8975464E2],"tree_param":{"num_deleted":"0","num_feature":"30","num_nodes":"45","size_leaf_vector":"1"}},{"base_weights":[3.1667806E-2,-6.3536793E-1,8.0199504E-1,9.100136E-1,-7.4611306E-1,1.0348366E0,2.1594463E-1,1.0766311E0,-1.1570676E-1,-8.825871E-1,6.1838377E-2,1.0495461E0,-1.2265388E-1,-8.286707E-1,4.7956914E-1,1.1113421E0,-1.5208338E-1,3.0615374E-1,-9.92775E-1,-1.1332927E0,8.511279E-1,1.0566509E0,-1.209168E-1,1.0425608E0,-1.16976224E-1,6.8131083E-1,-1.2037623E0,-1.0453502E-1,1.1254062E-1,-6.782259E-2,1.1919492E-1,-1.0950005E-1,-5.2003574E-2,-1.1072417E-1,-1.3471875E-1,-1.1165955E-1,1.334796E-1,1.0473762E-1,1.5858804E-1,1.2300415E-1,-1.0896476E-1,8.1388764E-2,-1.3110308E-1,-1.3053745E-1,-1.1462652E-1],"categories":[],"categories_nodes":[],"categories_segments":[],"categories_sizes":[],"default_left":[0,0,0,0,0,0,0,0,0,0,0,0,0,0,0,0,0,0,0,0,0,0,0,0,0,0,0,0,0,0,0,0,0,0,0,0,0,0,0,0,0,0,0,0,0],"id":20,"left_children":[1,3,5,7,9,11,13,15,-1,17,19,21,-1,23,25,27,-1,29,31,33,35,37,-1,39,-1,41,43,-1,-1,-1,-1,-1,-1,-1,-1,-1,-1,-1,-1,-1,-1,-1,-1,-1,-1],"loss_changes":[1.2853959E4,2.295151E3,1.5839038E3,3.101682E2,1.3795449E3,2.776377E2,9.097596E2,7.657477E1,0E0,1.4022285E3,1.7072122E3,1.3374512E2,0E0,4.2616275E2,8.964599E2,2.6054504E1,0E0,7.931524E2,4.7279688E2,2.5195312E0,1.0388065E3,3.87334E1,0E0,4.2585403E1,0E0,6.233082E2,1.5484619E-1,0E0,0E0,0E0,0E0,0E0,0E0,0E0,0E0,0E0,0E0,0E0,0E0,0E0,0E0,0E0,0E0,0E0,0E0],"parents":[2147483647,0,0,1,1,2,2,3,3,4,4,5,5,6,6,7,7,9,9,10,10,11,11,13,13,14,14,15,15,17,17,18,18,19,19,20,20,21,21,23,23,25,25,26,26],"right_children":[2,4,6,8,10,12,14,16,-1,18,20,22,-1,24,26,28,-1,30,32,34,36,38,-1,40,-1,42,44,-1,-1,-1,-1,-1,-1,-1,-1,-1,-1,-1,-1,-1,-1,-1,-1,-1,-1],"split_conditions":[1.6182641E0,-2.2241545E0,-1.943423E0,-6.8508977E-1,1.0676847E0,9.183223E-1,-2.2387151E-1,1.4699733E-1,-1.1570676E-1,-5.550173E-1,1.6302198E-1,2.0512102E0,-1.2265388E-1,-1.3983636E0,4.1719538E-1,-2.9481348E-1,-1.5208338E-1,6.864834E-1,8.5803276E-1,9.886442E-1,2.1454509E-1,2.013927E0,-1.209168E-1,-1.5374379E0,-1.16976224E-1,1.3545768E-1,-1.773767E-1,-1.0453502E-1,1.1254062E-1,-6.782259E-2,1.1919492E-1,-1.0950005E-1,-5.2003574E-2,-1.1072417E-1,-1.3471875E-1,-1.1165955E-1,1.334796E-1,1.0473762E-1,1.5858804E-1,1.2300415E-1,-1.0896476E-1,8.1388764E-2,-1.3110308E-1,-1.3053745E-1,-1.1462652E-1],"split_indices":[4,10,12,12,7,10,17,16,0,20,15,3,0,28,8,4,0,4,17,17,18,3,0,15,0,27,12,0,0,0,0,0,0,0,0,0,0,0,0,0,0,0,0,0,0],"split_type":[0,0,0,0,0,0,0,0,0,0,0,0,0,0,0,0,0,0,0,0,0,0,0,0,0,0,0,0,0,0,0,0,0,0,0,0,0,0,0,0,0,0,0,0,0],"sum_hessian":[2.5013703E4,1.340571E4,1.1607993E4,8.959568E2,1.2509753E4,8.306858E3,3.3011343E3,8.295684E2,6.638837E1,1.0701955E4,1.8077985E3,8.253707E3,5.3151794E1,6.647825E2,2.6363518E3,8.1919336E2,1.0375078E1,9.076941E2,9.794261E3,7.1886597E2,1.0889325E3,8.228356E3,2.5349869E1,1.02177765E2,5.626047E2,2.3547393E3,2.8161243E2,4.8323627E0,8.1436096E2,4.30034E2,4.7766013E2,8.051814E3,1.7424465E3,6.463245E2,7.254147E1,2.1459198E2,8.743405E2,8.089566E3,1.3879082E2,9.4308525E1,7.8692417E0,2.2083782E3,1.4636113E2,9.392309E1,1.8768933E2],"tree_param":{"num_deleted":"0","num_feature":"30","num_nodes":"45","size_leaf_vector":"1"}},{"base_weights":[9.3383834E-2,1.028479E0,-3.3961716E-1,-1.0895123E-1,1.050914E0,-9.3953294E-1,3.522806E-2,-1.22917295E-1,1.0570774E0,-1.0026453E0,2.0172223E-1,7.7000546E-1,-1.3897611E-1,1.0613003E0,-1.2759775E-1,-1.0327744E0,6.4754885E-1,1.6078516E0,-1.068385E-1,9.619922E-1,-3.609263E-1,4.4756255E-1,-4.512713E-1,1.062928E-1,-1.08140364E-1,-1.0752497E-1,1.6285235E-2,1.1825257E-1,-1.0578487E-1,-1.0374387E-1,1.8243991E-1,6.9815695E-2,2.1350911E-1,-1.1418551E-1,1.15607336E-1,8.547808E-2,-2.75756E-2,-1.5037223E-3,-1.1218335E-1],"categories":[],"categories_nodes":[],"categories_segments":[],"categories_sizes":[],"default_left":[0,0,0,0,0,0,0,0,0,0,0,0,0,0,0,0,0,0,0,0,0,0,0,0,0,0,0,0,0,0,0,0,0,0,0,0,0,0,0],"id":21,"left_children":[1,3,5,-1,7,9,11,-1,13,15,17,19,21,23,-1,25,27,29,-1,31,33,35,37,-1,-1,-1,-1,-1,-1,-1,-1,-1,-1,-1,-1,-1,-1,-1,-1],"loss_changes":[9.684024E3,3.6084033E2,3.6762148E3,0E0,1.0656836E2,4.5300342E2,1.288068E3,0E0,7.496387E1,2.968584E2,5.91549E2,4.1907715E2,1.4902365E3,2.7160156E1,0E0,2.9730615E2,9.926638E1,9.190646E1,0E0,5.0886047E2,3.3374103E2,8.3286975E2,1.5529097E3,0E0,0E0,0E0,0E0,0E0,0E0,0E0,0E0,0E0,0E0,0E0,0E0,0E0,0E0,0E0,0E0],"parents":[2147483647,0,0,1,1,2,2,4,4,5,5,6,6,8,8,9,9,10,10,11,11,12,12,13,13,15,15,16,16,17,17,19,19,20,20,21,21,22,22],"right_children":[2,4,6,-1,8,10,12,-1,14,16,18,20,22,24,-1,26,28,30,-1,32,34,36,38,-1,-1,-1,-1,-1,-1,-1,-1,-1,-1,-1,-1,-1,-1,-1,-1],"split_conditions":[-2.021119E0,-2.9481348E-1,3.134821E-1,-1.0895123E-1,-5.3194803E-1,1.3466136E0,-3.5414138E-1,-1.22917295E-1,1.64077E3,1.7818545E0,-1.5374379E0,2.8610694E-1,-5.4288054E-1,1.0124619E0,-1.2759775E-1,1.825775E0,-2.1230838E0,-1.5792463E0,-1.068385E-1,1.91637E-1,2.4831367E0,-3.0106542E-1,-7.407083E-2,1.062928E-1,-1.08140364E-1,-1.0752497E-1,1.6285235E-2,1.1825257E-1,-1.0578487E-1,-1.0374387E-1,1.8243991E-1,6.9815695E-2,2.1350911E-1,-1.1418551E-1,1.15607336E-1,8.547808E-2,-2.75756E-2,-1.5037223E-3,-1.1218335E-1],"split_indices":[10,4,4,0,11,12,20,0,29,22,15,12,10,12,0,16,13,15,0,12,17,13,9,0,0,0,0,0,0,0,0,0,0,0,0,0,0,0,0],"split_type":[0,0,0,0,0,0,0,0,0,0,0,0,0,0,0,0,0,0,0,0,0,0,0,0,0,0,0,0,0,0,0,0,0,0,0,0,0,0,0],"sum_hessian":[2.3915385E4,7.5687593E3,1.6346625E4,7.883428E1,7.489925E3,6.2855303E3,1.0061095E4,1.9656551E1,7.470268E3,5.9562656E3,3.2926465E2,1.9275297E3,8.1335654E3,7.4573154E3,1.2952962E1,5.8498335E3,1.06432076E2,1.5613853E2,1.7312611E2,1.6479272E3,2.7960245E2,2.825815E3,5.3077505E3,7.4521587E3,5.1566753E0,5.6492427E3,2.0059105E2,8.125065E1,2.5181427E1,1.1527733E1,1.4461081E2,1.3466538E3,3.012734E2,1.847455E2,9.485694E1,1.8078429E3,1.01797205E3,3.2163665E3,2.091384E3],"tree_param":{"num_deleted":"0","num_feature":"30","num_nodes":"39","size_leaf_vector":"1"}},{"base_weights":[4.408204E-2,8.3814603E-1,-5.3108567E-1,2.836589E-1,1.025038E0,-8.6894464E-1,-1.1582103E-1,6.0264516E-1,-8.132103E-1,-1.5691952E0,1.0339375E0,3.7612699E-3,-9.7600937E-1,7.9134595E-1,-3.818955E-1,8.4529227E-1,-5.04786E-1,-1.3515999E0,9.056752E-1,-2.019164E0,-1.1469223E-1,1.0377454E0,-1.6014498E0,-1.070737E-1,1.2942766E0,-1.037754E0,8.7885803E-1,-1.21650554E-1,1.097822E0,5.779843E-1,-7.905391E-1,9.792348E-2,-2.5326515E-2,8.4592745E-2,-1.2159344E-1,-1.1440655E-1,-1.4796053E-1,1.2630485E-1,-1.2472308E-1,-2.2116947E-1,-8.392026E-2,1.04079865E-1,-1.1869984E-1,-2.3910831E-1,-1.1128745E-1,-1.10563695E-1,1.7512132E-1,-1.0656829E-1,5.8557797E-2,-1.074399E-1,1.6237746E-1,1.2433442E-1,-1.1456903E-1,1.4489672E-1,4.5127873E-3,-1.1337769E-1,6.4549707E-3],"categories":[],"categories_nodes":[],"categories_segments":[],"categories_sizes":[],"default_left":[0,0,0,0,0,0,0,0,0,0,0,0,0,0,0,0,0,0,0,0,0,0,0,0,0,0,0,0,0,0,0,0,0,0,0,0,0,0,0,0,0,0,0,0,0,0,0,0,0,0,0,0,0,0,0,0,0],"id":22,"left_children":[1,3,5,7,9,11,13,15,17,19,21,23,25,27,29,31,33,35,37,39,-1,41,43,-1,45,47,49,-1,51,53,55,-1,-1,-1,-1,-1,-1,-1,-1,-1,-1,-1,-1,-1,-1,-1,-1,-1,-1,-1,-1,-1,-1,-1,-1,-1,-1],"loss_changes":[9.928466E3,9.460137E2,1.768675E3,8.0640015E2,1.5929102E2,6.4949854E2,1.3657043E3,4.8007996E2,4.8185583E2,2.1958847E0,6.9967285E1,1.0560674E3,7.1002783E2,7.9096643E2,1.7163823E3,2.1574695E2,3.0978918E2,8.824219E0,9.734373E1,4.5672226E-1,0E0,4.7409668E1,1.2794685E0,0E0,3.813775E2,2.7231592E2,2.9275903E2,0E0,3.6505957E2,6.064491E2,9.007472E2,0E0,0E0,0E0,0E0,0E0,0E0,0E0,0E0,0E0,0E0,0E0,0E0,0E0,0E0,0E0,0E0,0E0,0E0,0E0,0E0,0E0,0E0,0E0,0E0,0E0,0E0],"parents":[2147483647,0,0,1,1,2,2,3,3,4,4,5,5,6,6,7,7,8,8,9,9,10,10,11,11,12,12,13,13,14,14,15,15,16,16,17,17,18,18,19,19,21,21,22,22,24,24,25,25,26,26,28,28,29,29,30,30],"right_children":[2,4,6,8,10,12,14,16,18,20,22,24,26,28,30,32,34,36,38,40,-1,42,44,-1,46,48,50,-1,52,54,56,-1,-1,-1,-1,-1,-1,-1,-1,-1,-1,-1,-1,-1,-1,-1,-1,-1,-1,-1,-1,-1,-1,-1,-1,-1,-1],"split_conditions":[-1.3837447E0,1.7967257E0,7.4314165E-1,5.2766895E-1,-5.3194803E-1,-1.0697078E0,-3.5414138E-1,-6.1072534E-1,1.66784E5,-2.0322194E0,1.8587091E0,1.0676847E0,1.2038052E0,-2.4230433E-1,1.29E0,1.825972E0,-1.0958457E0,1.3094805E-1,-1.070649E0,-1.2748471E-1,-1.1469223E-1,7.686482E-1,-5.820671E-1,-1.070737E-1,-1.1551818E0,1.7818545E0,1.3148302E0,-1.21650554E-1,2.8610694E-1,9.1207683E-1,8.4661347E-1,9.792348E-2,-2.5326515E-2,8.4592745E-2,-1.2159344E-1,-1.1440655E-1,-1.4796053E-1,1.2630485E-1,-1.2472308E-1,-2.2116947E-1,-8.392026E-2,1.04079865E-1,-1.1869984E-1,-2.3910831E-1,-1.1128745E-1,-1.10563695E-1,1.7512132E-1,-1.0656829E-1,5.8557797E-2,-1.074399E-1,1.6237746E-1,1.2433442E-1,-1.1456903E-1,1.4489672E-1,4.5127873E-3,-1.1337769E-1,6.4549707E-3],"split_indices":[14,4,4,16,11,19,20,3,0,14,7,7,26,9,29,17,19,4,7,19,0,3,9,0,19,22,12,0,12,4,7,0,0,0,0,0,0,0,0,0,0,0,0,0,0,0,0,0,0,0,0,0,0,0,0,0,0],"split_type":[0,0,0,0,0,0,0,0,0,0,0,0,0,0,0,0,0,0,0,0,0,0,0,0,0,0,0,0,0,0,0,0,0,0,0,0,0,0,0,0,0,0,0,0,0,0,0,0,0,0,0,0,0,0,0,0,0],"sum_hessian":[2.1736654E4,9.130638E3,1.2606017E4,2.302349E3,6.8282886E3,6.9502256E3,5.6557905E3,1.7839886E3,5.183605E2,2.2744658E1,6.805544E3,7.5959314E2,6.1906323E3,1.2822052E3,4.3735854E3,1.4635497E3,3.2043887E2,3.9488745E2,1.2347302E2,9.180436E0,1.3564222E1,6.79633E3,9.213822E0,4.145796E2,3.4501355E2,5.9916245E3,1.9900812E2,1.6940344E2,1.1128018E3,1.3058369E3,3.0677488E3,1.3045946E3,1.5895515E2,1.104559E2,2.0998297E2,1.5443713E2,2.404503E2,1.06249405E2,1.722362E1,7.1408987E0,2.039537E0,6.7875464E3,8.783489E0,2.0334232E0,7.180399E0,5.4955833E1,2.900577E2,5.890622E3,1.0100243E2,5.4820396E1,1.4418773E2,1.0454368E3,6.7364975E1,4.95005E2,8.108319E2,2.188818E3,8.7893066E2],"tree_param":{"num_deleted":"0","num_feature":"30","num_nodes":"57","size_leaf_vector":"1"}},{"base_weights":[6.150152E-2,8.306459E-1,-5.429587E-1,-1.10982835E-1,8.917016E-1,-8.9636785E-1,-6.8775155E-2,1.0466548E0,5.015207E-1,-4.1541863E-2,-1.0035161E0,-5.1188165E-1,4.5128888E-1,1.0477751E0,-1.4814699E-1,-3.3301446E-1,6.770022E-1,-1.0686598E-1,1.1764432E0,-1.064606E0,7.8402615E-1,1.3790508E-1,-1.0292045E0,7.73815E-1,-1.9155353E-1,1.0483762E-1,-1.055301E-1,-1.1429282E-1,9.061154E-2,7.432913E-2,-1.4651015E-1,-1.0968136E-1,1.6048692E-1,-1.05906665E-1,-1.151009E-1,-1.0685253E-1,1.5256359E-1,1.6561766E-1,-2.8348988E-2,-1.156367E-1,1.3266412E-2,9.375843E-2,-1.2770037E-1,-1.1350769E-1,9.640168E-2],"categories":[],"categories_nodes":[],"categories_segments":[],"categories_sizes":[],"default_left":[0,0,0,0,0,0,0,0,0,0,0,0,0,0,0,0,0,0,0,0,0,0,0,0,0,0,0,0,0,0,0,0,0,0,0,0,0,0,0,0,0,0,0,0,0],"id":23,"left_children":[1,3,5,-1,7,9,11,13,15,17,19,21,23,25,-1,27,29,-1,31,33,35,37,39,41,43,-1,-1,-1,-1,-1,-1,-1,-1,-1,-1,-1,-1,-1,-1,-1,-1,-1,-1,-1,-1],"loss_changes":[9.629441E3,1.0808394E3,1.9434998E3,0E0,5.3375635E2,6.085996E2,1.1417812E3,1.946289E1,3.6836145E2,9.2850073E2,6.4564844E2,8.994166E2,4.7276135E2,9.098633E0,0E0,4.4002774E2,2.9607397E2,0E0,3.3247162E2,1.5141602E0,2.7050708E2,7.5969617E2,2.2022754E2,5.110728E2,8.3231036E2,0E0,0E0,0E0,0E0,0E0,0E0,0E0,0E0,0E0,0E0,0E0,0E0,0E0,0E0,0E0,0E0,0E0,0E0,0E0,0E0],"parents":[2147483647,0,0,1,1,2,2,4,4,5,5,6,6,7,7,8,8,9,9,10,10,11,11,12,12,13,13,15,15,16,16,18,18,19,19,20,20,21,21,22,22,23,23,24,24],"right_children":[2,4,6,-1,8,10,12,14,16,18,20,22,24,26,-1,28,30,-1,32,34,36,38,40,42,44,-1,-1,-1,-1,-1,-1,-1,-1,-1,-1,-1,-1,-1,-1,-1,-1,-1,-1,-1,-1],"split_conditions":[-1.3371689E0,-2.9481348E-1,8.932194E-1,-1.10982835E-1,-2.021119E0,-1.0697078E0,4.985958E-1,4.1718087E0,-1.0100361E0,1.0676847E0,1.2038052E0,-3.6792898E-1,1.9913028E-1,-1.4830784E0,-1.4814699E-1,3.5444003E-1,1.1609259E0,-1.0686598E-1,-1.1551818E0,7.4314165E-1,1.3148302E0,-8.590286E-1,1.6340299E0,3.549545E-1,2.441411E0,1.0483762E-1,-1.055301E-1,-1.1429282E-1,9.061154E-2,7.432913E-2,-1.4651015E-1,-1.0968136E-1,1.6048692E-1,-1.05906665E-1,-1.151009E-1,-1.0685253E-1,1.5256359E-1,1.6561766E-1,-2.8348988E-2,-1.156367E-1,1.3266412E-2,9.375843E-2,-1.2770037E-1,-1.1350769E-1,9.640168E-2],"split_indices":[14,4,4,0,10,19,11,7,10,7,26,6,12,14,0,23,7,0,19,4,12,17,15,25,4,0,0,0,0,0,0,0,0,0,0,0,0,0,0,0,0,0,0,0,0],"split_type":[0,0,0,0,0,0,0,0,0,0,0,0,0,0,0,0,0,0,0,0,0,0,0,0,0,0,0,0,0,0,0,0,0,0,0,0,0,0,0,0,0,0,0,0,0],"sum_hessian":[2.0710195E4,9.113439E3,1.1596756E4,2.7747668E2,8.835963E3,6.6440513E3,4.9527046E3,6.323154E3,2.512809E3,7.4019336E2,5.903858E3,2.674222E3,2.278483E3,6.3209385E3,2.2153275E0,4.3642255E2,2.0763867E3,4.016269E2,3.3856644E2,5.7091504E3,1.9470766E2,1.1856774E3,1.4885444E3,1.5171143E3,7.613685E2,6.319634E3,1.3048468E0,2.6396725E2,1.7245529E2,2.0146934E3,6.1693256E1,5.3441616E1,2.8512482E2,5.3776475E3,3.315031E2,5.5536327E1,1.3917134E2,2.569533E2,9.2872406E2,1.3417043E3,1.4684012E2,1.405426E3,1.1168826E2,4.1915015E2,3.422184E2],"tree_param":{"num_deleted":"0","num_feature":"30","num_nodes":"45","size_leaf_vector":"1"}},{"base_weights":[1.1501894E-1,7.6065755E-1,-5.264801E-1,-3.570155E-2,9.675493E-1,-7.728047E-1,3.0214118E-2,3.306618E-1,-9.445755E-1,1.0341121E0,3.812492E-1,-5.067235E-2,-9.466121E-1,-8.85627E-1,2.791509E-1,-1.1913954E0,4.9346206E-1,-1.1497298E0,9.134281E-1,1.0393441E0,-1.24439E-1,-1.2936525E-1,8.4376055E-1,-1.0542782E-1,7.065233E-1,4.3546967E-2,-1.0292437E0,-1.1341043E-1,1.060338E-1,4.3580243E-1,-1.2236274E0,-1.1152215E-1,-1.3878396E-1,7.758384E-2,-4.338443E-2,-1.07956946E-1,-1.3016623E-1,-9.105993E-2,1.0955896E-1,1.04203284E-1,-2.4887626E-1,-1.3794877E-1,1.0193061E-1,1.176328E-1,-1.09953396E-1,9.477752E-2,-1.1385993E-1,-1.0623931E-1,6.1564054E-2,-5.8632265E-3,9.275295E-2,-1.325954E-1,-1.1511036E-1],"categories":[],"categories_nodes":[],"categories_segments":[],"categories_sizes":[],"default_left":[0,0,0,0,0,0,0,0,0,0,0,0,0,0,0,0,0,0,0,0,0,0,0,0,0,0,0,0,0,0,0,0,0,0,0,0,0,0,0,0,0,0,0,0,0,0,0,0,0,0,0,0,0],"id":24,"left_children":[1,3,5,7,9,11,13,15,17,19,21,23,25,27,29,31,33,35,37,39,-1,-1,41,-1,43,45,47,-1,-1,49,51,-1,-1,-1,-1,-1,-1,-1,-1,-1,-1,-1,-1,-1,-1,-1,-1,-1,-1,-1,-1,-1,-1],"loss_changes":[8.354987E3,1.6564917E3,1.3875898E3,6.909964E2,3.1105127E2,8.804087E2,7.081201E2,3.670929E2,2.2829858E2,8.672266E1,6.326235E2,1.0356974E3,4.6264648E2,3.22177E2,5.754275E2,5.9524536E-1,3.5039716E2,4.322693E0,2.0880257E1,7.042334E1,0E0,0E0,2.509653E2,0E0,6.604456E2,4.6762302E2,2.8520508E2,0E0,0E0,5.379179E2,1.864624E-1,0E0,0E0,0E0,0E0,0E0,0E0,0E0,0E0,0E0,0E0,0E0,0E0,0E0,0E0,0E0,0E0,0E0,0E0,0E0,0E0,0E0,0E0],"parents":[2147483647,0,0,1,1,2,2,3,3,4,4,5,5,6,6,7,7,8,8,9,9,10,10,11,11,12,12,13,13,14,14,15,15,16,16,17,17,18,18,19,19,22,22,24,24,25,25,26,26,29,29,30,30],"right_children":[2,4,6,8,10,12,14,16,18,20,22,24,26,28,30,32,34,36,38,40,-1,-1,42,-1,44,46,48,-1,-1,50,52,-1,-1,-1,-1,-1,-1,-1,-1,-1,-1,-1,-1,-1,-1,-1,-1,-1,-1,-1,-1,-1,-1],"split_conditions":[-9.715879E-1,1.1838351E0,1.2922276E0,-4.8786056E-1,-4.5049092E-1,-7.2848606E-1,-2.2387151E-1,-2.0594794E-1,7E2,1.2325382E0,1.891548E0,3.134821E-1,-8.072138E-1,4.2104144E0,1.203605E0,1.0562245E0,5.2766895E-1,4.048237E-1,1.0986834E0,1.9603355E0,-1.24439E-1,-1.2936525E-1,5.610536E-1,-1.0542782E-1,-5.462443E-2,-8.2038647E-1,1.7818545E0,-1.1341043E-1,1.060338E-1,4.3886888E-1,-1.4611064E-1,-1.1152215E-1,-1.3878396E-1,7.758384E-2,-4.338443E-2,-1.07956946E-1,-1.3016623E-1,-9.105993E-2,1.0955896E-1,1.04203284E-1,-2.4887626E-1,-1.3794877E-1,1.0193061E-1,1.176328E-1,-1.09953396E-1,9.477752E-2,-1.1385993E-1,-1.0623931E-1,6.1564054E-2,-5.8632265E-3,9.275295E-2,-1.325954E-1,-1.1511036E-1],"split_indices":[14,4,4,3,12,19,17,21,29,3,4,4,14,2,2,18,16,4,4,1,0,0,18,0,6,7,22,0,0,22,8,0,0,0,0,0,0,0,0,0,0,0,0,0,0,0,0,0,0,0,0,0,0],"split_type":[0,0,0,0,0,0,0,0,0,0,0,0,0,0,0,0,0,0,0,0,0,0,0,0,0,0,0,0,0,0,0,0,0,0,0,0,0,0,0,0,0,0,0,0,0,0,0,0,0,0,0,0,0],"sum_hessian":[2.0170559E4,1.0052752E4,1.0117808E4,2.0732625E3,7.9794893E3,7.013919E3,3.103889E3,1.4780876E3,5.9517487E2,7.1652524E3,8.142366E2,1.3609125E3,5.6530063E3,6.6281775E2,2.441071E3,1.422105E2,1.3358771E3,5.3633575E2,5.8839153E1,7.14938E3,1.5872877E1,1.7580249E2,6.384341E2,5.8506305E2,7.758494E2,4.3545877E2,5.217548E3,5.8813666E2,7.468106E1,2.211275E3,2.2979614E2,1.0728595E2,3.492455E1,1.0241683E3,3.1170874E2,3.7244916E2,1.6388657E2,4.9794865E0,5.3859665E1,7.1446396E3,4.740245E0,4.6219196E1,5.922149E2,6.15968E2,1.5988138E2,2.4684464E2,1.8861415E2,5.1148228E3,1.0272506E2,1.1030409E3,1.1082341E3,8.814543E1,1.416507E2],"tree_param":{"num_deleted":"0","num_feature":"30","num_nodes":"53","size_leaf_vector":"1"}},{"base_weights":[8.195524E-2,6.8949944E-1,-5.773417E-1,1.0207698E0,2.7702826E-1,-6.953082E-1,1.004567E-1,1.0360636E0,2.0039834E-1,3.8317403E-1,-1.10384904E-1,-1.7132095E-1,-9.2852384E-1,-8.311943E-1,9.9310374E-1,1.0374553E0,-8.371041E-2,9.753793E-1,-1.9766674E0,-4.3713284E-1,5.7701606E-1,6.6864085E-1,-6.966779E-1,-2.171434E-1,-1.0665283E0,-1.0991444E-1,1.1243168E0,1.2231427E0,-1.12884656E-1,1.04270555E-1,8.987527E-2,1.0595681E-1,-9.2392296E-2,-3.947629E-1,-1.4696884E-1,9.6757986E-2,-9.640833E-2,-1.3452676E-1,6.558193E-2,1.1225219E-1,-1.1274423E-1,-1.0992854E-1,3.9311897E-2,-7.149644E-2,1.9111295E-1,-1.06094204E-1,-1.11591935E-1,1.16320506E-1,-7.004664E-2,-1.1531252E-1,1.3329338E-1],"categories":[],"categories_nodes":[],"categories_segments":[],"categories_sizes":[],"default_left":[0,0,0,0,0,0,0,0,0,0,0,0,0,0,0,0,0,0,0,0,0,0,0,0,0,0,0,0,0,0,0,0,0,0,0,0,0,0,0,0,0,0,0,0,0,0,0,0,0,0,0],"id":25,"left_children":[1,3,5,7,9,11,13,15,17,19,-1,21,23,25,27,29,-1,31,33,35,37,39,41,43,45,-1,47,49,-1,-1,-1,-1,-1,-1,-1,-1,-1,-1,-1,-1,-1,-1,-1,-1,-1,-1,-1,-1,-1,-1,-1],"loss_changes":[7.267717E3,1.2899595E3,6.958269E2,6.549219E1,6.170965E2,9.0557275E2,1.074319E3,1.4269043E1,1.6570816E2,6.2160974E2,0E0,1.0083578E3,5.032754E2,3.3247263E2,3.2338428E2,2.803711E0,0E0,1.2533127E1,1.9992844E1,5.542211E2,4.7974707E2,7.181365E2,6.1717487E2,8.855726E2,9.765625E-4,0E0,6.2558746E0,1.5693164E2,0E0,0E0,0E0,0E0,0E0,0E0,0E0,0E0,0E0,0E0,0E0,0E0,0E0,0E0,0E0,0E0,0E0,0E0,0E0,0E0,0E0,0E0,0E0],"parents":[2147483647,0,0,1,1,2,2,3,3,4,4,5,5,6,6,7,7,8,8,9,9,11,11,12,12,13,13,14,14,15,15,17,17,18,18,19,19,20,20,21,21,22,22,23,23,24,24,26,26,27,27],"right_children":[2,4,6,8,10,12,14,16,18,20,-1,22,24,26,28,30,-1,32,34,36,38,40,42,44,46,-1,48,50,-1,-1,-1,-1,-1,-1,-1,-1,-1,-1,-1,-1,-1,-1,-1,-1,-1,-1,-1,-1,-1,-1,-1],"split_conditions":[-8.072138E-1,-3.6314166E0,1.0517131E0,1.1097642E0,1.2325382E0,-6.434999E-1,2.983476E-1,5.7734907E-1,2.9963E4,-8.605068E-1,-1.10384904E-1,-9.5519084E-1,1.29E0,3.8545067E0,-4.6002388E-1,5.344691E-1,-8.371041E-2,-1.2802968E0,-1.3331091E0,-3.7946922E-1,-9.533211E-1,-2.2354674E-2,9.841329E-1,1.1E0,7.3518527E-1,-1.0991444E-1,-7.2432977E-1,-9.358299E-1,-1.12884656E-1,1.04270555E-1,8.987527E-2,1.0595681E-1,-9.2392296E-2,-3.947629E-1,-1.4696884E-1,9.6757986E-2,-9.640833E-2,-1.3452676E-1,6.558193E-2,1.1225219E-1,-1.1274423E-1,-1.0992854E-1,3.9311897E-2,-7.149644E-2,1.9111295E-1,-1.06094204E-1,-1.11591935E-1,1.16320506E-1,-7.004664E-2,-1.1531252E-1,1.3329338E-1],"split_indices":[14,14,19,7,3,19,23,10,0,6,0,15,29,10,16,7,0,9,9,16,24,7,2,29,17,0,14,16,0,0,0,0,0,0,0,0,0,0,0,0,0,0,0,0,0,0,0,0,0,0,0],"split_type":[0,0,0,0,0,0,0,0,0,0,0,0,0,0,0,0,0,0,0,0,0,0,0,0,0,0,0,0,0,0,0,0,0,0,0,0,0,0,0,0,0,0,0,0,0,0,0,0,0,0,0],"sum_hessian":[1.814226E4,9.441678E3,8.700581E3,5.2354355E3,4.206242E3,7.4107593E3,1.289822E3,5.1393623E3,9.607307E1,3.9066655E3,2.9957645E2,2.2830203E3,5.1277393E3,6.311564E2,6.586657E2,5.135992E3,3.3699355E0,7.125872E1,2.4814346E1,7.464708E2,3.1601948E3,8.783717E2,1.4046486E3,8.3355133E2,4.294188E3,5.5548065E2,7.56757E1,5.946263E2,6.403942E1,4.942395E3,1.9359727E2,6.8657524E1,2.6011975E0,3.6884267E0,2.112592E1,2.0340633E2,5.430645E2,1.2381633E2,3.0363784E3,7.0147876E2,1.7689291E2,1.0257087E3,3.789398E2,6.760756E2,1.5747571E2,3.8780527E3,4.161352E2,7.445161E1,1.2240942E0,2.5840612E1,5.687857E2],"tree_param":{"num_deleted":"0","num_feature":"30","num_nodes":"51","size_leaf_vector":"1"}},{"base_weights":[1.18122935E-1,7.9670995E-1,-4.3121785E-1,1.0171535E0,3.4119463E-1,-8.779825E-1,7.1012944E-2,-1.0038699E-1,1.0210712E0,1.8126722E-2,8.551009E-1,-3.593881E-3,-9.825762E-1,8.1924605E-1,-1.6559902E-1,1.0223758E0,-1.3529E-1,4.2463145E-1,-1.1910313E0,9.0958154E-1,-2.0866716E0,-1.0599031E-1,1.1486275E0,-1.0491966E0,7.244976E-1,1.5982922E0,3.754344E-1,4.44739E-1,-7.5176024E-1,1.0364833E-1,8.425223E-2,7.01327E-2,-1.3007769E-1,-1.091764E-1,-1.2773556E-1,-2.4565585E-1,9.391909E-2,-2.9119682E-1,-1.0623449E-1,-1.0482552E-1,1.4573376E-1,-1.0447978E-1,-1.11623704E-1,-1.0635366E-1,1.3510238E-1,1.7300187E-1,-1.1435894E-1,8.374428E-2,-1.15086354E-1,8.5030936E-2,-3.8778152E-2,-9.75417E-2,1.3861893E-1],"categories":[],"categories_nodes":[],"categories_segments":[],"categories_sizes":[],"default_left":[0,0,0,0,0,0,0,0,0,0,0,0,0,0,0,0,0,0,0,0,0,0,0,0,0,0,0,0,0,0,0,0,0,0,0,0,0,0,0,0,0,0,0,0,0,0,0,0,0,0,0,0,0],"id":26,"left_children":[1,3,5,7,9,11,13,-1,15,17,19,21,23,25,27,29,-1,31,33,35,37,-1,39,41,43,45,47,49,51,-1,-1,-1,-1,-1,-1,-1,-1,-1,-1,-1,-1,-1,-1,-1,-1,-1,-1,-1,-1,-1,-1,-1,-1],"loss_changes":[6.530437E3,7.866279E2,2.1723428E3,4.2836426E1,4.245758E2,4.6858276E2,8.0720386E2,0E0,1.7708496E1,7.728239E2,1.6010162E2,6.6868884E2,5.211968E2,3.7813373E2,1.2396941E3,1.2495117E1,0E0,5.626663E2,1.9954224E0,9.8971924E1,1.2336327E1,0E0,1.7974295E2,1.3330078E-1,1.9465332E2,1.4545496E2,4.9397986E2,5.7356964E2,8.4651154E2,0E0,0E0,0E0,0E0,0E0,0E0,0E0,0E0,0E0,0E0,0E0,0E0,0E0,0E0,0E0,0E0,0E0,0E0,0E0,0E0,0E0,0E0,0E0,0E0],"parents":[2147483647,0,0,1,1,2,2,3,3,4,4,5,5,6,6,8,8,9,9,10,10,11,11,12,12,13,13,14,14,15,15,17,17,18,18,19,19,20,20,22,22,23,23,24,24,25,25,26,26,27,27,28,28],"right_children":[2,4,6,8,10,12,14,-1,16,18,20,22,24,26,28,30,-1,32,34,36,38,-1,40,42,44,46,48,50,52,-1,-1,-1,-1,-1,-1,-1,-1,-1,-1,-1,-1,-1,-1,-1,-1,-1,-1,-1,-1,-1,-1,-1,-1],"split_conditions":[-1.3371689E0,-1.8909763E0,8.932194E-1,-4.849965E-1,2.441411E0,-1.5024445E0,-3.5414138E-1,-1.0038699E-1,4.1718087E0,-1.18399404E-1,7.3659503E-1,3.2420415E-1,1.2038052E0,-1.2137419E0,7.68E0,1.4699733E-1,-1.3529E-1,4.6999495E-2,3.4298107E-1,-3.3822006E-1,4.552117E-1,-1.0599031E-1,-7.615802E-2,7.4314165E-1,5.0625855E-1,1.4386289E-2,-5.744691E-1,-4.9249638E-2,2.0106628E0,1.0364833E-1,8.425223E-2,7.01327E-2,-1.3007769E-1,-1.091764E-1,-1.2773556E-1,-2.4565585E-1,9.391909E-2,-2.9119682E-1,-1.0623449E-1,-1.0482552E-1,1.4573376E-1,-1.0447978E-1,-1.11623704E-1,-1.0635366E-1,1.3510238E-1,1.7300187E-1,-1.1435894E-1,8.374428E-2,-1.15086354E-1,8.5030936E-2,-3.8778152E-2,-9.75417E-2,1.3861893E-1],"split_indices":[14,10,4,4,4,13,20,0,7,26,13,21,26,16,29,16,0,27,4,26,10,0,12,4,25,23,12,21,15,0,0,0,0,0,0,0,0,0,0,0,0,0,0,0,0,0,0,0,0,0,0,0,0],"split_type":[0,0,0,0,0,0,0,0,0,0,0,0,0,0,0,0,0,0,0,0,0,0,0,0,0,0,0,0,0,0,0,0,0,0,0,0,0,0,0,0,0,0,0,0,0,0,0,0,0,0,0,0,0],"sum_hessian":[1.7516494E4,7.8361914E3,9.680303E3,5.279823E3,2.5563682E3,5.122649E3,4.557654E3,9.72104E0,5.2701025E3,1.5702583E3,9.8610986E2,5.4741034E2,4.575239E3,1.0943983E3,3.4632554E3,5.267777E3,2.3255467E0,1.1756631E3,3.9459528E2,9.688577E2,1.7252106E1,2.8563345E2,2.617769E2,4.4037627E3,1.7147614E2,3.9624576E2,6.981525E2,1.6967561E3,1.7664993E3,4.8802144E3,3.875623E2,1.01369507E3,1.6196797E2,1.898858E2,2.0470947E2,7.733269E0,9.6112445E2,8.5337105E0,8.718395E0,3.1957956E1,2.2981894E2,4.148172E3,2.5559079E2,4.431336E1,1.2716277E2,3.7843393E2,1.7811806E1,5.3627435E2,1.6187822E2,1.1409231E3,5.5583295E2,1.5996947E3,1.6680463E2],"tree_param":{"num_deleted":"0","num_feature":"30","num_nodes":"53","size_leaf_vector":"1"}},{"base_weights":[8.812736E-2,6.6768074E-1,-5.811921E-1,-9.234459E-1,7.706745E-1,-3.416334E-2,-8.077678E-1,1.0124824E-1,-1.0673197E-1,1.0090228E0,3.9211178E-1,3.7891725E-1,-7.9464024E-1,-9.69284E-1,3.371575E-1,1.012682E0,-1.5893899E-1,-1.3392899E0,4.6997234E-1,6.191494E-1,-1.0855766E-1,-1.0921422E0,5.8509207E-1,-1.0581919E0,4.3378028E-1,-1.17207706E-1,7.496516E-1,1.01543896E-1,-1.1399283E-1,-1.5488067E-1,-1.1082321E-1,5.4862153E-2,-1.11452155E-1,-1.0346778E-1,7.937745E-2,-1.0396501E-1,-1.1451042E-1,-1.0958942E-1,1.23288766E-1,-1.0393373E-1,-1.1057635E-1,1.1583134E-1,-1.0914061E-1,9.729141E-2,-1.14495255E-1],"categories":[],"categories_nodes":[],"categories_segments":[],"categories_sizes":[],"default_left":[0,0,0,0,0,0,0,0,0,0,0,0,0,0,0,0,0,0,0,0,0,0,0,0,0,0,0,0,0,0,0,0,0,0,0,0,0,0,0,0,0,0,0,0,0],"id":27,"left_children":[1,3,5,7,9,11,13,-1,-1,15,17,19,21,23,25,27,-1,29,31,33,-1,35,37,39,41,-1,43,-1,-1,-1,-1,-1,-1,-1,-1,-1,-1,-1,-1,-1,-1,-1,-1,-1,-1],"loss_changes":[6.2242446E3,1.4099587E3,9.2288916E2,1.4682336E2,7.284092E2,6.857297E2,9.7401465E2,0E0,0E0,4.8728516E1,4.2154382E2,4.9835144E2,3.1602255E2,5.76105E2,4.0659436E2,3.0531738E1,0E0,4.8009033E0,3.730606E2,3.5196768E2,0E0,5.6762695E-1,1.5046658E2,2.7436523E0,3.059256E2,0E0,2.1786612E2,0E0,0E0,0E0,0E0,0E0,0E0,0E0,0E0,0E0,0E0,0E0,0E0,0E0,0E0,0E0,0E0,0E0,0E0],"parents":[2147483647,0,0,1,1,2,2,3,3,4,4,5,5,6,6,9,9,10,10,11,11,12,12,13,13,14,14,15,15,17,17,18,18,19,19,21,21,22,22,23,23,24,24,26,26],"right_children":[2,4,6,8,10,12,14,-1,-1,16,18,20,22,24,26,28,-1,30,32,34,-1,36,38,40,42,-1,44,-1,-1,-1,-1,-1,-1,-1,-1,-1,-1,-1,-1,-1,-1,-1,-1,-1,-1],"split_conditions":[-8.072138E-1,-2.9481348E-1,-6.434999E-1,-3.5288513E0,-1.421692E0,-1.05459034E-1,2.8354554E0,1.0124824E-1,-1.0673197E-1,-1.7187281E-1,-4.5915246E-1,1.03295E5,2.7544653E0,1.096342E0,2.415956E-1,1.2671238E0,-1.5893899E-1,-1.4830784E0,1.2325382E0,3.134821E-1,-1.0855766E-1,7.60653E-1,3.7465844E0,8.7317055E-1,-1.5024445E0,-1.17207706E-1,2.677467E-1,1.01543896E-1,-1.1399283E-1,-1.5488067E-1,-1.1082321E-1,5.4862153E-2,-1.11452155E-1,-1.0346778E-1,7.937745E-2,-1.0396501E-1,-1.1451042E-1,-1.0958942E-1,1.23288766E-1,-1.0393373E-1,-1.1057635E-1,1.1583134E-1,-1.0914061E-1,9.729141E-2,-1.14495255E-1],"split_indices":[14,4,19,12,12,26,4,0,0,3,26,0,6,21,20,9,0,14,3,4,0,4,4,4,13,0,18,0,0,0,0,0,0,0,0,0,0,0,0,0,0,0,0,0,0],"split_type":[0,0,0,0,0,0,0,0,0,0,0,0,0,0,0,0,0,0,0,0,0,0,0,0,0,0,0,0,0,0,0,0,0,0,0,0,0,0,0,0,0,0,0,0,0],"sum_hessian":[1.6043739E4,8.598464E3,7.445275E3,5.222578E2,8.0762065E3,2.1809329E3,5.2643423E3,3.5710453E1,4.865474E2,4.9548794E3,3.1213267E3,1.4135912E3,7.6734155E2,4.6136426E3,6.506994E2,4.9485215E3,6.358234E0,1.336273E2,2.9876995E3,1.2148821E3,1.9870918E2,6.3140466E2,1.3593692E2,4.3389434E3,2.7469965E2,1.3927568E2,5.114237E2,4.942719E3,5.8022337E0,6.70894E1,6.653791E1,2.8470354E3,1.4066394E2,1.1555611E2,1.0993259E3,3.2746997E2,3.039347E2,3.762106E1,9.831586E1,3.123726E3,1.215217E3,1.8639436E2,8.830528E1,4.5794534E2,5.3478367E1],"tree_param":{"num_deleted":"0","num_feature":"30","num_nodes":"45","size_leaf_vector":"1"}},{"base_weights":[1.11755945E-1,9.828932E-1,-2.3385052E-1,-1.0232911E-1,1.0023936E0,-9.259014E-1,8.223525E-2,1.0116233E0,-1.171573E-1,-9.9608314E-1,3.8622075E-1,3.595254E-1,-4.8783252E-1,1.0156784E0,-1.19034685E-1,-1.0401944E-1,6.470879E-1,-1.0635226E-1,1.242646E0,5.058689E-1,-7.505048E-1,-1.1007892E0,-1.3518254E-1,-9.728428E-2,1.0185905E-1,-1.0104277E-1,1.1196585E-1,-8.0212995E-2,1.2985663E-1,7.2951615E-2,1.4350769E-3,9.878417E-2,-1.0251661E-1,-1.0648656E-1,-1.15867674E-1,-7.712285E-2,3.855928E-2],"categories":[],"categories_nodes":[],"categories_segments":[],"categories_sizes":[],"default_left":[0,0,0,0,0,0,0,0,0,0,0,0,0,0,0,0,0,0,0,0,0,0,0,0,0,0,0,0,0,0,0,0,0,0,0,0,0],"id":28,"left_children":[1,3,5,-1,7,9,11,13,-1,15,17,19,21,23,-1,-1,25,-1,27,29,31,33,35,-1,-1,-1,-1,-1,-1,-1,-1,-1,-1,-1,-1,-1,-1],"loss_changes":[4.507285E3,1.6738232E2,2.344778E3,0E0,8.5697266E1,3.098689E2,1.1634397E3,3.8663574E1,0E0,2.3192334E2,2.1407263E2,8.047124E2,5.2048834E2,2.523877E1,0E0,0E0,6.694769E1,0E0,1.3411392E1,4.8094617E2,2.765745E2,5.950928E-1,5.0711728E2,0E0,0E0,0E0,0E0,0E0,0E0,0E0,0E0,0E0,0E0,0E0,0E0,0E0,0E0],"parents":[2147483647,0,0,1,1,2,2,4,4,5,5,6,6,7,7,9,9,10,10,11,11,12,12,13,13,16,16,18,18,19,19,20,20,21,21,22,22],"right_children":[2,4,6,-1,8,10,12,14,-1,16,18,20,22,24,-1,-1,26,-1,28,30,32,34,36,-1,-1,-1,-1,-1,-1,-1,-1,-1,-1,-1,-1,-1,-1],"split_conditions":[-2.021119E0,-4.849965E-1,3.134821E-1,-1.0232911E-1,7.999468E-1,1.825775E0,4.311884E-2,4.1718087E0,-1.171573E-1,1.7818545E0,1.66784E5,2.4851468E-1,7.0778E4,-5.3194803E-1,-1.19034685E-1,-1.0401944E-1,1.3507594E0,-1.0635226E-1,1.2731245E0,9.0966E4,-2.218169E0,1.4711995E0,3.517349E-2,-9.728428E-2,1.0185905E-1,-1.0104277E-1,1.1196585E-1,-8.0212995E-2,1.2985663E-1,7.2951615E-2,1.4350769E-3,9.878417E-2,-1.0251661E-1,-1.0648656E-1,-1.15867674E-1,-7.712285E-2,3.855928E-2],"split_indices":[10,4,4,0,14,16,14,7,0,22,0,8,0,11,0,0,21,0,11,0,9,4,28,0,0,0,0,0,0,0,0,0,0,0,0,0,0],"split_type":[0,0,0,0,0,0,0,0,0,0,0,0,0,0,0,0,0,0,0,0,0,0,0,0,0,0,0,0,0,0,0,0,0,0,0,0,0],"sum_hessian":[1.496909E4,4.251328E3,1.0717762E4,4.043008E1,4.210898E3,3.3597847E3,7.357977E3,4.1936284E3,1.7269562E1,3.189432E3,1.7035278E2,4.9503945E3,2.4075825E3,4.1864575E3,7.1709995E0,3.1064067E3,8.3025185E1,6.317289E1,1.0717989E2,4.3742495E3,5.7614545E2,8.785003E2,1.5290822E3,5.634653E0,4.1808228E3,1.816706E1,6.485812E1,2.4978929E0,1.04682E2,3.0059968E3,1.3682524E3,7.825685E1,4.9788858E2,5.540594E2,3.2444095E2,6.8814246E2,8.4093976E2],"tree_param":{"num_deleted":"0","num_feature":"30","num_nodes":"37","size_leaf_vector":"1"}},{"base_weights":[7.643066E-2,-4.7528467E-1,6.347838E-1,-5.7675786E-2,-8.0214554E-1,9.066372E-1,7.2248116E-2,-2.2294448E-1,1.1125398E0,-1.889457E-1,-1.0423857E-1,9.20461E-1,-2.3663638E0,-1.1416222E-1,3.2233772E-1,-7.032791E-1,1.7209236E-1,1.3098377E0,-1.1368399E-1,-5.0659585E-1,1.6278148E0,9.397819E-1,-1.3106625E0,-1.484358E-1,-3.7686064E0,-1.1270144E-1,5.0658697E-1,6.5688044E-2,-1.1123063E-1,-1.1788366E-1,3.8799472E-2,8.896651E-2,1.8862139E-1,8.477117E-2,-1.04269825E-1,1.9336896E-1,-9.9535845E-2,9.889021E-2,3.7724078E-2,-1.14878014E-1,-2.0858334E-1,-1.7819457E-1,-4.5559487E-1,-8.612826E-2,7.200586E-2],"categories":[],"categories_nodes":[],"categories_segments":[],"categories_sizes":[],"default_left":[0,0,0,0,0,0,0,0,0,0,0,0,0,0,0,0,0,0,0,0,0,0,0,0,0,0,0,0,0,0,0,0,0,0,0,0,0,0,0,0,0,0,0,0,0],"id":29,"left_children":[1,3,5,7,9,11,13,15,17,19,-1,21,23,-1,25,27,29,31,-1,33,35,37,39,-1,41,-1,43,-1,-1,-1,-1,-1,-1,-1,-1,-1,-1,-1,-1,-1,-1,-1,-1,-1,-1],"loss_changes":[4.241694E3,9.4534607E2,1.0464885E3,5.8855725E2,5.72126E2,2.10927E2,6.7757666E2,5.060545E2,1.6862848E2,6.3265076E2,0E0,1.993103E2,1.8751556E1,0E0,4.947229E2,6.7026086E2,4.2742188E2,8.228644E1,0E0,6.780432E2,1.328504E2,1.2552368E2,2.6066818E0,0E0,2.753952E0,0E0,4.802164E2,0E0,0E0,0E0,0E0,0E0,0E0,0E0,0E0,0E0,0E0,0E0,0E0,0E0,0E0,0E0,0E0,0E0,0E0],"parents":[2147483647,0,0,1,1,2,2,3,3,4,4,5,5,6,6,7,7,8,8,9,9,11,11,12,12,14,14,15,15,16,16,17,17,19,19,20,20,21,21,22,22,24,24,26,26],"right_children":[2,4,6,8,10,12,14,16,18,20,-1,22,24,-1,26,28,30,32,-1,34,36,38,40,-1,42,-1,44,-1,-1,-1,-1,-1,-1,-1,-1,-1,-1,-1,-1,-1,-1,-1,-1,-1,-1],"split_conditions":[1.3935208E0,-4.6618605E-1,-9.715879E-1,6.7903847E-1,-4.1151315E-1,1.8976845E0,-1.1516491E-1,1.1730165E0,-5.8332354E-1,-4.1694653E-1,-1.0423857E-1,7.790156E-1,2.1815317E0,-1.1416222E-1,-3.0590668E-1,-1.8909763E0,-2.9489137E-2,-5.934155E-1,-1.1368399E-1,-1.1245792E0,-8.590286E-1,-2.7757728E-1,1.4277555E0,-1.484358E-1,-1.255587E0,-1.1270144E-1,-2.2387151E-1,6.5688044E-2,-1.1123063E-1,-1.1788366E-1,3.8799472E-2,8.896651E-2,1.8862139E-1,8.477117E-2,-1.04269825E-1,1.9336896E-1,-9.9535845E-2,9.889021E-2,3.7724078E-2,-1.14878014E-1,-2.0858334E-1,-1.7819457E-1,-4.5559487E-1,-8.612826E-2,7.200586E-2],"split_indices":[4,14,14,21,26,1,23,1,7,26,0,9,4,0,26,10,27,7,0,19,17,10,18,0,22,0,17,0,0,0,0,0,0,0,0,0,0,0,0,0,0,0,0,0,0],"split_type":[0,0,0,0,0,0,0,0,0,0,0,0,0,0,0,0,0,0,0,0,0,0,0,0,0,0,0,0,0,0,0,0,0,0,0,0,0,0,0,0,0,0,0,0,0],"sum_hessian":[1.376743E4,6.9249517E3,6.8424775E3,3.0409297E3,3.884022E3,4.6127085E3,2.229769E3,2.6653184E3,3.756115E2,1.0938405E3,2.7901816E3,4.594024E3,1.8684494E1,3.8030447E2,1.8494646E3,1.2024503E3,1.4628679E3,3.4570654E2,2.9904974E1,9.316653E2,1.6217519E2,4.5551567E3,3.886757E1,1.2733638E1,5.9508557E0,2.0801875E2,1.6414458E3,2.7786044E2,9.245899E2,2.0096208E2,1.2619059E3,2.014182E2,1.4428833E2,2.6404663E2,6.6761865E2,1.4547493E2,1.6700247E1,4.1886523E3,3.6650424E2,3.4206116E1,4.6614513E0,2.6152272E0,3.3356285E0,2.2117567E2,1.4202701E3],"tree_param":{"num_deleted":"0","num_feature":"30","num_nodes":"45","size_leaf_vector":"1"}},{"base_weights":[1.1298618E-1,5.3783137E-1,-5.6398875E-1,-1.9599281E-1,7.695368E-1,-1.03157215E-1,-1.0861415E-1,-5.1896554E-1,5.271515E-1,1.0229495E0,4.1212568E-1,5.329717E-1,-4.8465356E-1,2.9387715E-1,-1.0509491E-1,9.691657E-1,-1.1208279E0,1.055056E0,-1.0731953E-1,-8.216098E-1,5.7702523E-1,-4.943893E-1,7.982931E-1,-9.147538E-1,5.9338295E-1,8.001846E-2,-1.2498291E-1,-1.0973193E-1,1.2590574E-1,-1.05541386E-1,-1.4066598E-1,1.0038008E-1,1.6449164E-1,9.618412E-2,-1.234529E-1,8.367477E-2,4.7418326E-3,1.0245208E-1,-1.11576594E-1,-1.1524232E-1,1.0369783E-1,3.0042756E-2,-1.0947128E-1,1.14229076E-1,-1.0857028E-1],"categories":[],"categories_nodes":[],"categories_segments":[],"categories_sizes":[],"default_left":[0,0,0,0,0,0,0,0,0,0,0,0,0,0,0,0,0,0,0,0,0,0,0,0,0,0,0,0,0,0,0,0,0,0,0,0,0,0,0,0,0,0,0,0,0],"id":30,"left_children":[1,3,5,7,9,-1,11,13,15,17,19,21,23,25,-1,27,29,31,-1,33,35,37,39,41,43,-1,-1,-1,-1,-1,-1,-1,-1,-1,-1,-1,-1,-1,-1,-1,-1,-1,-1,-1,-1],"loss_changes":[3.8269543E3,1.3902087E3,1.0923462E3,4.586714E2,5.623623E2,0E0,6.276358E2,5.872067E2,4.4284042E2,2.4577441E2,5.2525903E2,2.6245236E2,7.6095593E2,4.2124304E2,0E0,2.881652E2,9.221649E-1,1.0660791E2,0E0,2.2545671E2,3.1302393E2,1.8796423E2,3.5712912E2,2.5677686E2,4.3286902E2,0E0,0E0,0E0,0E0,0E0,0E0,0E0,0E0,0E0,0E0,0E0,0E0,0E0,0E0,0E0,0E0,0E0,0E0,0E0,0E0],"parents":[2147483647,0,0,1,1,2,2,3,3,4,4,6,6,7,7,8,8,9,9,10,10,11,11,12,12,13,13,15,15,16,16,17,17,19,19,20,20,21,21,22,22,23,23,24,24],"right_children":[2,4,6,8,10,-1,12,14,16,18,20,22,24,26,-1,28,30,32,-1,34,36,38,40,42,44,-1,-1,-1,-1,-1,-1,-1,-1,-1,-1,-1,-1,-1,-1,-1,-1,-1,-1,-1,-1],"split_conditions":[-4.2615515E-1,7.4314165E-1,8.932194E-1,4.5331562E-1,-8.392441E-1,-1.03157215E-1,3.99E0,-1.7883465E0,-6.1045806E-3,2.8610694E-1,6.411365E-2,9.988505E-3,1.1572467E0,4.7548294E-1,-1.0509491E-1,-4.4206393E-1,1.4015139E0,1.91637E-1,-1.0731953E-1,-2.021119E0,-3.0106542E-1,-2.7080896E0,-9.376335E-3,-1.0037454E0,5.551486E-2,8.001846E-2,-1.2498291E-1,-1.0973193E-1,1.2590574E-1,-1.05541386E-1,-1.4066598E-1,1.0038008E-1,1.6449164E-1,9.618412E-2,-1.234529E-1,8.367477E-2,4.7418326E-3,1.0245208E-1,-1.11576594E-1,-1.1524232E-1,1.0369783E-1,3.0042756E-2,-1.0947128E-1,1.14229076E-1,-1.0857028E-1],"split_indices":[14,4,4,25,16,0,29,14,28,12,16,28,19,5,0,1,17,12,0,10,13,10,5,24,2,0,0,0,0,0,0,0,0,0,0,0,0,0,0,0,0,0,0,0,0],"split_type":[0,0,0,0,0,0,0,0,0,0,0,0,0,0,0,0,0,0,0,0,0,0,0,0,0,0,0,0,0,0,0,0,0,0,0,0,0,0,0,0,0,0,0,0,0],"sum_hessian":[1.3304022E4,8.174319E3,5.129704E3,1.9616902E3,6.212629E3,2.5303E3,2.5994038E3,1.3562434E3,6.054468E2,3.6341038E3,2.5785251E3,9.603942E2,1.6390098E3,5.36677E2,8.1956635E2,4.7772522E2,1.2772156E2,3.5797693E3,5.433436E1,3.0353946E2,2.2749856E3,1.9694247E2,7.634517E2,1.1716946E3,4.6731516E2,4.044925E2,1.3218451E2,5.8429173E1,4.1929605E2,1.0775397E2,1.9967587E1,3.2960632E3,2.8370596E2,5.681572E1,2.4672374E2,1.5260309E3,7.4895483E2,5.698877E1,1.399537E2,8.281299E1,6.8063873E2,1.5105034E2,1.0206442E3,3.524243E2,1.1489087E2],"tree_param":{"num_deleted":"0","num_feature":"30","num_nodes":"45","size_leaf_vector":"1"}},{"base_weights":[1.273251E-1,9.817152E-1,-1.503302E-1,1.0042827E0,-4.3684654E-2,1.5824923E-1,-4.193697E-1,1.0063556E0,-8.0275185E-2,-1.8985221E0,9.2650765E-1,-7.290639E-1,3.0884725E-1,-6.562332E-1,5.047294E-1,1.0141056E0,7.9373145E-1,-1.4429505E0,-3.1936666E-1,1.0185497E-1,-8.150696E-2,7.0689344E-1,-1.10373154E-1,-1.3074185E0,3.58789E-1,-1.7873478E-1,-9.635768E-1,7.606229E-1,-1.1703574E-1,1.0167841E-1,-2.5566E-1,1.00338124E-1,-1.7674154E-1,-1.6528678E-1,-9.237953E-2,-1.1799623E-1,1.2073248E-1,-1.1505884E-1,-1.5094416E-1,4.180806E-2,-1.10456765E-1,-1.05244555E-1,1.73588E-2,6.712965E-2,-1.0452745E-1,9.69405E-2,